9994 10
. 0.027675966 0.019082958 0.025594762 -0.012062413 -0.035167817 0.060497846 0.00046776352 -0.04963116 0.13651203 -0.012366751
영화 0.0690414 -0.11522175 0.018979741 -0.002096442 0.045547336 0.030051883 -0.004130642 -0.113245204 0.094770305 0.037557352
다 0.05709455 -0.05923919 0.005163243 0.051239558 0.020298012 0.076415874 -0.033094466 -0.09219385 0.11437773 -0.030727047
고 0.010017672 -0.036448233 -0.029195074 -0.04254936 0.02003313 0.08858914 0.020421773 -0.07034861 0.07820045 -0.08793031
하 0.03492116 0.020479823 0.0027895023 -0.026491232 -0.066092044 -0.055342473 0.039765324 0.019896876 0.0047999946 0.0012102814
을 -0.0013089802 -0.009156086 0.021972261 0.015629515 -0.035891913 -0.005894876 -0.033729468 -0.05154599 -0.004151221 -0.00030350508
보 -0.01742665 -0.030123506 -0.033606734 -0.03507003 0.07776846 0.010848884 0.005755608 0.030822247 0.021482572 -0.017356904
.. 0.0056828395 0.02126414 -0.0096128 -0.03907208 -0.04169415 0.056292932 0.038688 -0.010230283 0.034379177 0.055742964
게 0.026481835 -0.037391324 -0.014181249 -0.04933603 0.088486664 0.0647905 -0.014442935 -0.04242018 0.1071972 -0.03430332
, 0.04746113 -0.0751552 0.020894423 -0.029983245 -0.0057207607 0.04676874 0.049401417 0.029249763 0.05481466 -0.00041028115
! 0.034775946 -0.06049613 0.015227669 0.02454186 0.08949651 -0.023820717 -0.036584698 -0.047833312 0.08788556 -0.07483426
지 -0.1094312 -0.00557461 0.1033748 -0.009359514 -0.06748266 -0.12109045 -0.013458998 0.058861297 -0.11072492 0.15393373
있 -0.024182767 -0.014215371 -0.0768976 -0.07948007 0.07805751 -0.019178765 -0.03765637 0.015103995 -0.012877481 -0.048948005
없 -0.10495333 0.126627 0.19074501 0.1412187 -0.40352148 -0.073841855 0.1173255 0.02690644 -0.23313782 0.36674133
? -0.0042252876 0.102055766 0.04255629 0.10685892 -0.1351607 -0.05056795 0.0066052484 -0.06957088 -0.07559766 0.08808286
좋 -0.07593018 -0.11265672 -0.050461605 -0.15738864 0.43264604 -0.1903416 -0.084941395 0.09203393 0.15268886 -0.16291736
나 -0.020368477 -0.009453219 0.0062440727 0.0057176435 -0.022984399 0.063108034 -0.008158884 -0.019575454 -0.043998487 -0.05809866
었 0.025196504 0.010166745 -0.03906339 -0.003762469 0.117420316 -0.008919735 -0.073666945 -0.03422246 0.060220994 -0.05832421
만 0.12773286 0.029930122 -0.03431368 0.048798215 0.01280308 0.1070534 0.05293886 -0.1551623 0.009734666 0.029401368
는데 -0.088758826 0.032473028 0.006670099 0.03651474 -0.069480926 0.03810631 -0.092483826 0.13023457 -0.053245284 -0.03102284
너무 -0.061717264 0.012755409 0.08982883 0.03463846 -0.2984814 -0.10317348 0.12193842 0.18540625 0.046385795 -0.15411496
봤 -0.0416209 -0.035194762 0.027341058 0.0016108193 0.04429205 -0.010922564 -0.021523403 0.06926572 0.04832256 -0.07331422
적 0.018157952 -0.01768246 0.03441539 -0.05145982 0.04202581 0.02275194 -0.016078731 -0.0071052066 0.033358727 -0.00436252
안 0.19519046 0.11967659 0.103682525 0.015031928 -0.28810912 0.01601209 0.03333512 -0.057228148 -0.1601076 0.31957301
정말 -0.03287196 -0.028642315 0.034947872 -0.0952099 -0.0612947 -0.022777438 -0.008389531 0.10852942 0.034528617 -0.10386267
로 0.06261102 0.073930636 0.036747057 0.0002998227 -0.050475676 0.04226955 -0.0003650082 -0.010086135 0.02756818 -0.026583023
음 0.061407257 -0.04017174 -0.0067917737 0.054792594 -0.018691273 0.016924925 -0.025671994 -0.1685862 0.15552682 -0.016131388
것 0.019812368 -0.02355999 0.036224607 0.0029055164 -0.082609124 -0.06629053 -0.013020094 0.060491223 0.05830546 -0.01664085
아 -0.01817336 -0.024702197 -0.014533891 -0.05007682 -0.00843299 0.038230292 -0.014571439 -0.026159637 -0.004778745 0.034875933
네요 0.054403163 -0.018974634 -0.036537528 0.033515435 0.029339138 0.0013418149 -0.027887644 -0.2027662 0.18695618 0.043420367
재밌 -0.21490513 -0.26152053 -0.2787328 -0.22937939 0.50568014 0.004418344 -0.27603918 0.07555629 0.15369375 -0.32492033
어 0.023361286 -0.012603588 -0.061249964 -0.0012952924 -0.06858068 -0.024748843 0.023820797 0.021925071 0.025491936 -0.026920823
같 0.056597196 -0.008373702 0.0031462233 -0.067431524 -0.076348916 -0.053426098 0.03298635 0.047997933 0.03375788 -0.008374142
점 0.10441733 -0.017633993 -0.05912759 0.068460844 0.061514363 0.12439912 -0.0267583 -0.2767146 0.16735873 0.047833078
지만 -0.16585319 0.10195993 0.04116158 -0.068417795 -0.14424545 -0.09137572 -0.018202566 0.17438778 -0.2286583 0.07848076
진짜 -0.041336928 -0.0801197 0.03210251 -0.048012976 -0.05289212 0.051423226 -0.016338827 0.09379383 0.073309615 -0.107287906
했 0.07882178 -0.021815911 -0.010013075 -0.050473124 -0.01080004 -0.09682467 0.019074388 -0.043014977 0.0002852169 0.020122247
에서 0.048535418 0.029451467 0.026240725 -0.031104384 -0.023384515 -0.04937843 -0.04152943 0.039077897 0.029956665 -0.06584152
기 0.08278983 0.00055783393 0.02526489 -0.025959553 -0.031665206 0.008945763 0.06418636 -0.0482868 0.08278403 0.07155302
네 0.043153375 -0.0063760406 -0.0017188494 0.047059283 -0.06396196 0.08227642 -0.0052330815 -0.10272269 0.08008529 0.03794866
않 -0.060421117 0.12979245 0.14457783 -0.08416378 -0.20474467 -0.11938432 0.008420643 0.12717608 -0.25027362 0.23022208
거 -0.03881732 0.00063914864 -0.012676073 0.025203848 0.07445193 -0.034892716 0.0046221535 -0.067153625 -0.06094337 0.06671564
았 -0.0069458093 0.06297123 -0.0010468673 0.057807874 0.028234178 -0.042149924 -0.0057969703 -0.07032195 -0.017833766 -0.059221473
수 0.024108564 -0.0536139 -0.044937197 -0.08026756 0.09480005 -0.07802937 -0.069909394 -0.08495229 0.06756992 0.14586954
되 0.032959353 -0.10946897 -0.0066858917 0.0067542773 -0.036895994 -0.04022088 -0.03183072 -0.038775943 0.076407515 -0.069560766
면 -0.008037076 0.03166109 0.008939826 -0.0120921815 -0.0907303 0.059141558 -0.024165532 -0.031756457 -0.05047788 0.18467982
ㅋㅋ -0.010171293 -0.0595096 -0.012980391 0.025576845 0.0029229664 -0.029157555 -0.0003258104 0.027910274 0.08272602 0.023332888
말 0.015616821 0.037360046 -0.058576256 -0.04139635 0.013575056 0.0033198863 0.01740577 0.08989818 -0.047364198 -0.09682825
연기 -0.028233297 -0.03348304 -0.0037917206 -0.029567998 0.17035216 -0.03413631 -0.038520962 0.015905607 0.12069085 -0.08776142
인 0.043365113 -0.037870377 -0.012557525 -0.002661375 0.14497896 -0.0032417271 0.00560548 -0.061760433 0.015329001 -0.0659496
주 -0.11834929 -0.044499908 0.036562193 -0.014864328 0.03520972 -0.063208684 0.0033917073 -0.052577045 0.030858532 -0.054656696
내 0.007564931 -0.019296154 0.003712158 0.00013208133 -0.08988402 -0.0036967138 0.004160988 0.008535238 0.008226491 -0.03759835
최고 -0.22905172 -0.2316733 -0.23840268 -0.2487038 0.239869 -0.25560108 -0.24919027 0.25514662 0.2675437 -0.28830814
~ 0.022751361 -0.031381343 -0.040301476 0.01578112 0.041619767 -0.053127088 0.034945875 0.0015601902 0.07547795 -0.031311058
평점 -0.013292695 0.06657005 -0.017260218 -0.026598625 0.09221584 -0.20252454 -0.031824272 -0.0032242294 -0.009632565 0.08696786
이런 -0.04596651 0.020976795 0.055282667 0.022750564 0.030541208 -0.026751455 0.0023315689 0.09066978 -0.0035984186 -0.08509855
던 0.0216078 -0.084339306 -0.040431146 -0.045062017 0.058077715 -0.028024506 0.00779449 0.04201787 -0.03609568 -0.0490342
어요 0.026060633 -0.059049092 -0.037562836 0.05373743 0.05709831 -0.048747122 0.007092026 -0.19471286 0.2347895 -0.004675208
할 -0.05514164 -0.010550324 0.03310107 -0.010942477 -0.06745936 -0.011347732 -0.042551346 0.02222494 0.0034984762 0.04608055
왜 0.17574178 0.048408505 -0.018573426 0.056358963 0.009009235 -0.026725274 -0.043744948 -0.08192603 0.06381846 0.10748603
겠 0.022123754 0.12257871 0.078645214 0.009912499 -0.17357539 -0.042106953 0.12689777 0.017494973 -0.038853627 0.0012724157
1 0.16849262 0.1164466 0.014687491 0.09772076 -0.16276538 0.09902212 0.026026629 -0.10533974 -0.21876124 0.2066758
스토리 0.13474523 0.015089303 0.04609455 0.10186067 -0.06217803 0.10520357 0.028662758 -0.08815961 0.039847635 0.010157635
해 0.0011697949 -0.039166123 -0.0102971215 -0.015422027 0.0016675618 -0.04174483 0.008002192 -0.019247811 0.006997851 0.06930023
습니다 0.070440434 -0.09656665 -0.037898067 -0.033927877 0.03526189 -0.010489905 -0.038569465 -0.12747462 0.16399571 0.036290236
ㅋㅋㅋ -0.018943649 -0.023143087 0.03296481 0.0031041238 0.07599645 -0.006640221 -0.0061024977 -0.054941457 -0.023772951 -0.009438597
... 0.012931805 0.035354648 0.0067563895 0.013605217 0.00063013966 0.066696115 -0.00036278396 -0.015156368 0.016662125 -0.059557945
드라마 0.059230667 -0.10444103 -0.019226167 0.058982205 0.030112527 -0.014085439 -0.052809857 -0.12106619 0.1978269 0.07264218
생각 0.06390622 -0.11825943 -0.054552585 -0.078789294 0.025793675 -0.093523934 -0.091926135 -0.017308028 0.053151473 -0.012331488
아니 -0.027765637 0.17559238 0.12028237 0.020111525 -0.26773906 -0.025873467 0.011974882 0.041790094 -0.21231651 0.14853434
더 0.12234343 0.022616457 -0.0071711517 0.020353585 -0.028887182 -0.037284244 -0.06337183 -0.07513284 0.021445064 0.13666478
그 0.017801069 -0.055814713 -0.066546164 0.03257273 -0.108342245 -0.069892175 0.01748898 0.023771608 0.049690947 -0.020507947
싶 0.06150493 -0.07620424 0.009400305 -0.00845202 0.05555688 -0.040706847 0.057785053 -0.11156038 0.13439007 -0.04631282
사람 -0.033235643 -0.001754788 0.014717495 -0.070700094 0.0021975136 -0.118204035 -0.045913294 0.05239646 -0.08763524 0.19833492
듯 0.00065693626 -0.015546142 0.04172169 0.004932022 -0.024127237 -0.05636467 -0.008332728 -0.0027225153 -0.042629506 0.06650545
때 -0.042815514 -0.031539593 -0.079398535 -0.060177356 -0.004775616 -0.007907713 -0.02092844 -0.023411756 0.05679353 0.0775127
감동 -0.27339947 -0.1589542 -0.051076617 -0.06772093 0.1621148 -0.050995324 -0.048986703 0.19457978 0.122465536 -0.24148531
함 -0.0032551612 -0.027628785 0.0355094 0.017504906 -0.040850174 0.003866471 0.007962626 -0.06667146 0.060173947 -0.0038104618
배우 0.035949335 0.057924982 -0.010042932 -0.02914658 -0.002254328 -0.03733612 -0.012416764 -0.013128844 -0.029942937 0.10259982
본 -0.034944903 -0.039944984 0.018945744 -0.023431106 0.07005257 -0.04434611 -0.07239078 -0.007560188 0.047442432 0.047054052
까지 -0.06016247 -0.06884325 0.023781227 0.051576294 0.08803092 -0.046745587 -0.044069767 -0.023081517 -0.011314437 0.03218892
뭐 0.10716454 0.053982176 0.060678873 0.021960912 -0.0011937905 0.028706295 0.07842528 -0.085181475 -0.08372445 0.19718932
알 0.010693058 -0.008110568 0.072734036 -0.0101569835 -0.115407445 0.08103352 0.027063409 -0.027384162 -0.046805214 0.0045230486
만들 -0.07274549 -0.060281157 0.05527932 -0.021976678 0.14366171 0.13211542 0.0914977 -0.12969588 0.054296397 -0.09720132
내용 0.030389717 0.08993726 0.023740327 0.13339306 -0.16059268 0.07443452 0.0679732 -0.08474941 -0.045954224 -0.091324
볼 -0.15006828 -0.082892455 -0.05495875 -0.0018673697 0.25482062 -0.04204483 -0.10640725 0.08518076 0.071855485 -0.19230072
감독 0.034700513 0.0042031826 0.06776367 0.10516212 0.05396701 -0.020844005 0.08739143 -0.100710124 -0.01240069 -0.003640128
보다 -0.10717102 0.009560947 0.101879254 -0.040736765 -0.14743428 -0.07295232 -0.041826263 0.14262256 -0.03107652 -0.01881537
라 -0.0036091274 0.011389798 0.02141321 -0.037019756 0.018894067 0.033291925 -0.029462252 -0.01021596 -0.0018190977 -0.04742177
그냥 0.0009777385 0.08250205 0.09050634 0.066987425 -0.074509405 0.006477231 0.051550172 -0.0077579725 0.000940843 -0.07468053
재미 -0.17730573 -0.0017067507 0.051738143 -0.012488735 -0.003873203 0.08417574 0.02016495 0.03017258 0.026641754 -0.2566036
시간 0.12025917 0.0461099 0.06295917 0.05443417 -0.20340194 0.06517759 0.053031977 -0.048733655 0.026841762 0.08500153
지루 0.379826 0.32063356 0.2605842 0.14350404 -0.5105216 0.2624822 0.1789012 -0.18784854 -0.32155424 0.55276436
중 -0.033706944 -0.03148028 -0.04399184 -0.016988346 -0.103465125 -0.08544567 -0.0127402805 0.08265077 0.0738651 -0.11333546
재미있 -0.20491678 -0.18258917 -0.18919615 -0.115928896 0.3582797 -0.09253629 -0.14590101 0.19019766 0.10887887 -0.2955892
년 0.0691431 0.029895028 -0.005007675 -0.023951726 -0.05038195 -0.013374059 -0.018014904 -0.08746257 0.04766265 -0.017308563
10 -0.20608416 -0.14229856 -0.12586482 -0.28286836 0.5474275 -0.23653264 -0.11728517 0.09935639 0.05167411 -0.32088456
였 -0.019580523 -0.05346142 0.023685755 -0.017729059 0.123018615 0.07658299 -0.082243845 -0.06987655 0.10760685 0.0059310216
잼 -0.12860404 -0.14743145 -0.05864353 -0.009481736 0.05438695 0.092094876 -0.08829922 0.035744354 0.19725262 -0.36701587
사랑 -0.1544331 -0.08276969 -0.1467465 -0.15804525 0.17780374 -0.195376 -0.18045919 0.12444471 0.02058361 -0.06421655
못 0.08910429 0.21316737 0.115575284 0.039720643 -0.31933993 0.04230669 0.014773714 -0.06871081 -0.13988699 0.34676373
냐 0.016006941 0.12152907 0.013238034 0.09315976 -0.1066471 0.0801925 0.034968153 -0.06308079 -0.09981419 0.11649467
재미없 0.39893878 0.60627496 0.32584116 0.31508735 -0.5310935 0.14886051 0.26173675 -0.32252738 -0.46250603 0.68095344
쓰레기 0.33409816 0.45502838 0.35908422 0.21546982 -0.43277693 0.134391 0.30180377 -0.21777736 -0.49004355 0.5275833
서 -0.013988454 -0.0062352763 0.009869345 0.014857909 0.15701847 -0.06526799 0.0028241412 0.08195621 -0.052795753 0.029076893
2 0.13226762 0.011885818 0.03734637 -0.005256307 -0.25081313 0.023643011 0.028357599 -0.041237116 -0.099440195 0.14915627
라고 0.016944919 0.08940291 0.08355815 -0.045446567 -0.013717577 -0.04519476 0.031821694 -0.0034016683 -0.0793417 0.10005125
야 0.035382405 -0.03129823 0.071295545 0.0017026794 0.019609727 -0.0010947707 0.005322342 0.045471 0.0095626535 0.004075348
니 0.01162566 0.009620786 -0.018796992 -0.00048612757 -0.12488039 0.008046191 0.006054283 -0.009870887 -0.054404587 0.0764285
면서 -0.051386993 -0.04989372 0.0040865284 -0.09558275 0.0336876 -0.10293376 0.014836169 0.10251486 0.03429188 -0.015182366
번 -0.08703083 -0.0121941725 -0.078190014 -0.023792854 0.079356946 -0.070486315 -0.095225565 0.033604264 -0.0057367384 -0.08011865
다시 -0.042900946 -0.068867944 -0.08006116 -0.16743068 0.08924799 0.03472715 -0.10949006 0.1018488 0.016229197 -0.1436815
나오 -0.034477163 0.026869187 -0.018396145 0.02015312 0.0065460852 -0.05999933 0.04396573 -0.0016562529 -0.040998064 0.024183605
작품 0.010330182 -0.14431734 0.006453236 -0.008569306 0.037508897 0.07125692 -0.061362997 -0.061284862 0.16570772 -0.092416875
이거 -0.026417077 -0.017797444 -0.035141386 -0.05101739 -0.013003249 -0.14297524 0.016093802 0.04552669 0.02228557 0.059160028
하나 -0.020647977 0.020329488 0.02326959 0.053365387 0.0008523725 0.039358508 0.025546705 0.021263603 0.0020923847 0.08627719
줄 -0.0309281 -0.010498688 0.054327145 0.015518859 -0.0020063072 -0.03616709 0.013487365 0.083655454 -0.06509513 0.03553793
해서 -0.1084496 0.0353616 0.022453364 0.011783741 0.10001443 0.013729704 -0.0015601693 -0.001723396 -0.06563243 -0.09645232
개 0.058098204 0.052334532 -0.036177978 0.040085997 -0.18159921 0.00034635584 0.03844157 0.03922334 0.016975874 0.034976594
남 0.064194694 -0.078670725 0.05353477 0.052535705 0.1512641 0.084527776 0.05074238 -0.06912435 0.11146429 -0.048891027
정도 0.04854044 0.062873304 -0.054413345 0.014198668 -0.2629304 0.1415644 0.031183846 0.048620455 -0.023576505 -0.023257231
마지막 0.076644816 -0.084008686 -0.08210117 -0.0678196 0.022035383 -0.06847392 -0.07799297 0.039469823 0.17962167 0.012488271
끝 0.074247874 0.059560504 -0.016893446 0.07738386 -0.050940327 0.1031171 0.044558834 -0.07941727 -0.0049121073 0.11811169
이건 -0.16860975 0.040776324 0.16883586 0.044439513 -0.071239255 0.18636638 0.15720388 0.004166592 -0.1254305 -0.253667
액션 -0.01861991 -0.04469869 -0.02990796 -0.029495228 0.02833023 0.02666895 -0.0711842 -0.00893492 0.039539304 -0.06049054
임 0.00032254972 -0.053330645 -0.05976555 0.0308075 -0.044370778 0.062152825 -0.00966225 -0.045392424 0.0879042 -0.081418686
ㅋ 0.010464697 0.018653706 -0.013163997 0.043320622 0.1418645 0.03569303 0.042208802 -0.05130761 0.08838483 -0.119308695
3 0.058742553 0.10614796 -0.005159625 0.111557364 -0.16319627 0.05780424 0.022201534 -0.023614585 -0.007094749 0.1658491
기대 -0.085296206 -0.01085849 0.042750355 0.031425845 0.13114233 -0.06550959 0.032111935 0.0748696 -0.05520925 -0.12613153
입니다 0.029999912 -0.08457078 -0.019941496 0.04404404 0.091858424 -0.07574701 -0.03517053 -0.11238602 0.11702041 0.0038680446
건 -0.042025886 0.07887253 0.02252518 0.06418004 -0.035034433 0.026231764 0.020757154 -0.014481751 -0.07928077 0.16898227
라는 0.09938791 -0.03746061 -0.005036921 0.003855756 -0.0035220012 -0.07801968 -0.028926285 -0.013316807 0.0041630836 -0.011321041
분 -0.050523344 0.13835514 0.101166785 0.05046415 -0.008331896 -0.08624959 0.060857456 0.026481241 -0.16615164 0.2520136
완전 -0.15372404 -0.020904584 0.09969945 0.028316202 -0.2091904 0.12195932 0.022903727 0.1564314 -0.018747376 -0.23302513
다는 0.026754878 0.041224226 -0.010142199 -0.005255494 0.06887693 -0.17121822 0.02767631 0.10346992 -0.08580851 0.10300893
참 0.028062457 0.09536102 -0.001987878 0.014173228 -0.10089717 -0.021738144 0.021341622 -0.06062099 0.03244236 -0.035373103
많 0.06557946 -0.059965793 -0.09109901 -0.07055205 -0.26817763 0.04211189 -0.09612662 0.08277488 0.059277683 0.020543355
처음 0.07793907 -0.06462752 0.00027106586 0.014126675 0.091924116 0.095100254 0.009792953 -0.10903722 0.030683076 0.0280251
장면 -0.055286985 -0.07265313 0.05793706 -0.050533555 0.04697302 0.010731282 0.012002961 0.039097615 -0.022671038 0.10617125
대 -0.09682287 0.07787158 -0.021311471 0.025200976 -0.077515416 0.038687773 -0.03812768 -0.0046321885 -0.12254907 0.1261262
아깝 0.3161301 0.25424594 0.11375414 0.2577077 -0.4068169 -0.018693877 0.17889507 -0.3536251 0.046643913 0.36725467
다가 -0.016391547 0.096269496 0.10680798 0.06787846 -0.19563197 -0.0012863183 0.0589588 0.0849121 -0.12303007 -0.05712152
으면 0.024081593 0.031405628 0.03003228 -0.021659419 0.05657712 -0.07743363 -0.04270478 -0.037826907 -0.015107674 0.12764187
지금 -0.08967374 -0.075919695 -0.063832596 -0.047596816 -0.049888507 -0.06321975 -0.06512917 0.16446628 0.033839747 -0.09122424
모르 -0.041693766 -0.07831543 0.011811293 -0.028242618 -0.10993405 0.019839955 -0.08007826 0.097646125 -0.059053835 -0.012386809
이렇게 -0.101191044 -0.07445901 0.095577665 0.057925884 0.020406246 -0.06237555 0.016503744 0.15940526 -0.0007438215 -0.1893027
' -0.07129296 0.011679038 -0.037110496 0.02113703 -0.043307826 0.030954426 0.023336124 0.04657708 -0.022253154 0.040959068
편 -0.11273475 -0.054672543 -0.06699141 0.0005624497 0.13824908 -0.0733898 -0.038797647 -0.031620387 0.015961519 0.06329319
일 0.019262822 -0.001212564 0.034773905 -0.06559349 -0.10495497 -0.012392454 -0.013308908 0.052355338 -0.040551353 0.055220436
돈 0.15319984 0.1779338 0.1645994 0.13245107 -0.12894316 0.025106415 0.13198139 -0.15747727 -0.11157268 0.23957258
이게 -0.012287563 0.038237695 0.019824248 0.010117114 0.12626451 0.039958652 0.012578696 -0.07339741 -0.019675124 0.08020167
성 -0.04621531 -0.014935237 0.0114146145 0.056320913 -0.080793045 0.07705145 0.06297007 0.010002441 -0.010755531 -0.03795386
느낌 0.06846007 -0.0427378 0.046381004 -0.0063426476 -0.073700026 0.051814474 0.04016287 0.005684819 0.11149002 -0.11865749
시 -0.0035269272 0.05014413 0.012922164 -0.016335847 0.05080528 -0.05307344 -0.03969796 -0.030902192 -0.008670288 0.07271066
이야기 -0.030039852 -0.034553517 -0.009756484 -0.047897328 0.0054224785 -0.050967526 0.028297123 0.02761783 0.03273079 0.010805392
최악 0.4188748 0.5070063 0.58161235 0.5235012 -0.54250765 0.34036914 0.48781517 -0.4892777 -0.39320934 0.3834914
된 -0.009367315 -0.04714147 0.0015892512 0.015843447 0.0054261554 -0.0026808262 -0.07757891 -0.07038741 0.10438769 -0.01779232
봐도 -0.017748743 -0.14673534 -0.10695157 0.020652406 0.10368571 0.063965954 -0.0855729 -0.04480348 0.2807982 -0.16565014
님 0.025268996 -0.0072985934 -0.08159068 -0.08643782 0.23580094 -0.15706936 -0.05716037 -0.0006329374 0.08829401 0.0696788
어서 0.037536453 -0.024838608 -0.009388091 -0.013248388 -0.1680301 -0.0006010352 -0.0110439 -0.046976 0.03920187 0.009874343
애 -0.015747529 -0.0059303343 0.031397626 0.06740407 0.037938196 0.00235342 -0.015513693 -0.091071345 -0.020296285 0.1407378
전 -0.01944009 -0.00010079879 0.013865585 -0.007817749 0.08369583 0.007283831 -0.035043113 0.023266511 -0.06403732 -0.02668512
넘 -0.05333345 -0.040026594 0.024781087 0.023894338 -0.031881403 -0.08422302 -0.0046717785 0.12559642 0.06516736 -0.13650861
ㅠㅠ -0.050972737 -0.05519246 -0.013854836 -0.05289937 -0.008766966 -0.026486643 -0.09212537 0.056389682 0.15087244 -0.01799253
인데 -0.08111407 0.070980914 -0.0130744595 0.00426169 -0.076965384 0.036422245 -0.030072372 0.0807832 -0.07607587 -0.017487774
다고 -0.041735265 0.043245792 0.08014658 -0.01727967 0.15020373 -0.10525028 -0.009319217 0.10970024 -0.25407013 0.022516863
이해 -0.013621071 -0.009125311 0.056114677 -0.010955911 0.02113503 -0.06514821 -0.029906562 0.07221886 -0.03410484 0.081224315
별로 0.30815047 0.26067924 0.30553165 0.19929366 -0.3582297 0.19712137 0.25264463 -0.24626046 -0.25741437 0.42888382
그리고 -0.030723147 -0.10440404 -0.039571214 -0.026041627 0.08902663 -0.05353219 -0.05406764 0.061252914 0.11029328 -0.13866672
명작 -0.26670912 -0.19751987 -0.20569672 -0.20233645 0.2887718 -0.21675384 -0.21927524 0.1299745 0.22803369 -0.18487561
여자 0.047331754 0.032115202 -0.027182525 0.09072331 0.13760385 -0.015919218 0.0127021065 -0.048954412 -0.06788513 0.045070738
^^ -0.12202874 -0.12382071 0.017199704 -0.09646727 0.08525726 -0.024133896 -0.08012918 0.033597574 0.08805472 -0.10740574
역시 -0.11236056 -0.06930652 -0.032443427 -0.029403722 0.034754038 0.07623719 -0.021211259 -0.03187595 0.08518525 -0.23344873
난 -0.11729497 -0.0064966436 -0.0041314587 -0.0928238 -0.02690331 0.09089188 -0.015054356 0.08371244 -0.052372947 -0.12806436
이상 0.053570475 -0.0348123 -0.038040485 0.024909379 -0.095175475 0.05632325 0.04325768 0.004185855 0.014861335 -0.14493357
또 -0.017605128 -0.037347894 -0.094604716 -0.0016645346 -0.053583965 -0.014585987 -0.013608564 -0.020381153 0.061643347 -0.040740594
걸 0.0019487435 0.01623443 0.0555522 0.04119264 -0.12447711 0.057434842 0.007855833 -0.009936444 -0.012724191 -0.006629071
한국 0.010648426 0.025428992 -0.024807949 -0.03287057 0.00839076 -0.086824864 -0.07821887 0.07091044 -0.031782955 0.1741633
는지 0.04113101 -0.020930141 0.09530998 0.029458378 0.013738729 -0.018310882 0.08010612 -0.014459429 -0.05574046 0.058547884
많이 -0.0011487023 0.0298844 -0.022377066 0.018063676 -0.20241353 -0.08353183 0.005040421 -0.012980369 0.016633937 -0.018815052
에게 0.065996155 -0.025500948 -0.09096931 -0.067325056 0.013594334 -0.04163894 -0.0069116266 0.025143249 0.0141400155 0.019030016
부터 -0.0073584844 0.0025211768 0.0020447806 0.005267798 -0.12583075 0.059790116 0.042044472 -0.031623606 -0.011736224 -0.11223105
만든 -0.029909374 -0.014826719 0.007219061 0.01854112 0.098563515 -0.01213365 0.02553134 -0.032056145 0.03561425 -0.2013317
주인공 0.032089204 -0.02193935 0.0005027531 0.036546674 -0.11028519 0.03401878 0.06697961 -0.045111194 0.053695675 -0.019342944
받 -0.001262152 0.058171913 -0.039156478 0.02327971 0.017337 -0.03367059 0.029194077 0.0781596 0.03764124 -0.046251144
합니다 -0.0138721 -0.053397026 -0.018093243 -0.072047845 -0.007825302 -0.042591333 -0.012402037 0.00053564855 0.036689617 0.056195784
우리 -0.028739085 -0.07762328 -0.035117112 -0.11221295 0.04758161 -0.10593234 -0.0941394 0.035994574 0.103867754 0.03516567
두 0.03352219 -0.0156084625 -0.026746914 -0.035066646 0.043602813 0.05454551 0.012224419 0.021261219 -0.022186626 -0.044387646
살 -0.07873433 0.04045341 -0.056019045 0.04321216 -0.14978123 -0.19563492 -0.025321761 0.062031575 0.027491206 0.13734858
!! 0.026979914 0.062085018 -0.035350733 0.06335753 0.044494502 0.031683233 0.028399682 -0.017593266 -0.0063761296 -0.13581175
길 0.0070274095 0.01632091 -0.010677746 -0.08415681 0.06278025 -0.070298634 0.010264349 -0.026188225 -0.007026967 0.15293725
엔 0.050738763 -0.08873496 0.021201527 -0.019405931 0.12217823 0.13021429 -0.016519694 -0.14549585 -0.0042912923 0.123330995
괜찮 -0.106624156 -0.1319709 -0.11038817 -0.08724647 0.2707859 -0.07035711 -0.09461636 0.14649071 0.14604364 -0.2807007
기억 -0.05219137 -0.070635706 -0.05319787 -0.05428951 0.23879609 -0.10372789 -0.018714445 0.041166928 0.16533601 -0.11585264
연출 0.01992933 0.014825933 0.04777709 0.036008444 -0.030221837 0.009749391 0.07513475 0.009653698 0.009909968 -0.046542916
한다 0.029479293 -0.03923216 -0.073422104 -0.02265613 -0.101607144 -0.032290414 0.018131303 0.070112064 0.000683287 -0.017497987
때문 -0.109181 -0.0027733992 -0.025982473 -0.022370651 0.17833185 -0.101636425 0.027518777 0.07475828 -0.044777635 -0.048518453
이나 0.09169671 0.06783227 0.035276208 -0.002543095 -0.04561684 0.06928234 0.07978442 -0.0679201 -0.114786945 0.012951269
ㅎㅎ -0.0777976 -0.06980367 -0.03125974 -0.036584686 0.050750345 -0.17852044 -0.09832052 -0.041250847 0.13425368 0.11732217
요 -0.021825323 -0.012472269 0.009034616 0.08391552 0.020979658 -0.11453265 -0.045169264 -0.035597682 0.13296929 -0.009857655
저 -0.058847472 -0.015021763 -0.08211044 0.041482043 0.014608824 0.066632435 -0.06513244 -0.009261574 -0.011185 -0.022179594
재 -0.032506365 -0.07429487 -0.16681036 -0.06672759 0.17086358 -0.14921805 -0.08119254 0.0170446 0.11474657 -0.020192819
꼭 -0.1312501 0.020745402 -0.1467365 -0.084289975 0.039725803 -0.29262537 -0.13805833 0.18770926 0.06308675 -0.026119705
랑 -0.07172592 0.008957643 -0.019815851 0.032210074 0.030929498 0.07899647 0.031643305 0.028452419 -0.04689266 -0.07361944
며 -0.042700566 -0.043299723 -0.030666377 0.033894192 -0.0027846007 -0.0020555416 -0.020317767 -0.04694474 0.15470596 -0.1192636
현실 0.043307528 -0.053057175 -0.107665084 -0.121054545 0.09115119 -0.01688267 -0.12867516 0.023706658 0.104528986 -0.08716494
긴 0.027730118 0.12291055 0.0048223534 -0.037636906 -0.07328581 0.06884382 0.005297026 0.08606408 -0.17409712 0.066249356
ㅡㅡ 0.18348962 0.12397809 0.005264124 0.061607536 -0.11004612 -0.0077601667 0.07608285 -0.24459164 0.027712584 0.3051269
무슨 0.14958973 0.09818016 0.09418785 0.12722169 -0.3120512 0.117551655 0.14332162 -0.045468435 -0.04868848 -0.007263578
내내 0.018329328 -0.022475414 0.028193714 0.089278415 -0.21273488 0.11751987 0.07528312 -0.0020655107 0.11301177 -0.07456857
결말 0.12360565 -0.05974524 0.022756688 -0.03754328 -0.0054061897 -0.023025367 -0.000516313 -0.053249106 0.07115089 0.100635625
죽 0.077198334 0.051393468 -0.008329349 0.014813915 0.06441031 -0.008329414 0.0147634465 -0.030528933 0.07881199 -0.05529148
남자 -0.005267816 -0.022012366 -0.042637598 -0.0033561857 0.022118796 0.036252886 -0.043970477 -0.062123176 0.01102398 0.029467626
세요 -0.07322262 -0.010154463 0.04150791 0.09660666 -0.063160524 0.07297788 0.03614971 0.019291645 -0.053309985 -0.08626222
전개 -0.020540254 0.048545472 0.048545033 0.04746997 -0.046239723 0.028205402 0.12420858 -0.06816225 -0.012138899 -0.117466256
마음 -0.06386695 -0.08697552 -0.08927855 -0.14125684 -0.026357906 -0.020416372 -0.13090733 0.121852316 0.16262867 -0.095426895
소재 0.027510952 0.0955019 0.08634475 0.06943184 0.0072413194 0.03177533 0.0262328 -0.036570404 -0.13667464 0.07057166
속 0.018784327 -0.03815701 0.020527033 -0.015265756 0.001947514 -0.045877524 0.02280108 -0.038849067 0.031800088 0.0019804167
공포 -0.04165226 0.07796318 0.03552849 0.026812661 0.0587867 -0.048800673 0.06127558 0.0023654145 -0.008078291 0.010452723
아서 0.01516301 0.016588066 0.030709451 0.009732409 -0.1743579 -0.03188208 0.053543653 0.11729776 -0.038155913 -0.047520094
다른 0.028647082 -0.007977355 -0.02951568 0.0045869467 0.0070643593 0.03902616 -0.055010308 -0.0764149 0.07396569 0.05487766
씨 0.022980474 0.04704183 0.016157957 0.055365644 -0.19853523 -0.013602621 0.008324359 -0.091613375 0.11616177 0.08163346
인생 -0.034710173 -0.031277068 -0.17173095 -0.21496429 0.12050691 -0.07129928 -0.15266468 0.168395 -0.00073149457 -0.034421895
~~ 0.024926921 -0.0888636 0.016930658 0.07585465 -0.024978574 -0.10097191 0.025304992 -0.052388094 0.11164737 0.031682108
짜증 0.11576041 0.41814598 0.19974369 0.21562243 -0.28891128 0.045451883 0.22379297 -0.14721318 -0.29136434 0.27228442
짱 -0.13183756 -0.08165735 -0.10751059 -0.1877268 0.37632763 -0.1540158 -0.08050685 0.049019895 0.17871565 -0.1908093
뿐 -0.067239605 0.13594688 0.04761015 0.060001373 -0.10900887 0.01612245 0.08716356 -0.011333368 -0.08406643 0.08743017
은데 -0.07124006 -0.022785526 -0.08244305 0.00085041724 0.1695041 0.025875457 -0.072450735 -0.007930651 -0.022908336 -0.14200155
별 0.081700325 0.042208254 0.09733707 0.011533018 -0.195576 0.119911514 0.08595341 0.04183473 0.03645853 -0.026579633
아요 0.11962806 0.017985743 -0.03311405 0.08116607 0.038660415 -0.13526016 -0.014328118 -0.11985976 0.17460102 0.05397159
유치 0.26326683 0.24707614 0.17015696 0.11508071 -0.34962478 0.2379286 0.21896218 -0.12584983 -0.22889765 0.29596528
가장 -0.071362115 0.0072273267 0.018144606 -0.005254377 -0.07106105 0.08465038 -0.014935245 0.10631109 -0.05777058 -0.0922784
필요 -0.049342554 -0.18681213 -0.34242994 -0.22530204 0.32889974 -0.06124545 -0.30634496 -0.21060772 0.23566034 0.019499557
음악 0.050536923 -0.11971227 -0.09328178 -0.12675613 -0.06675649 -0.0023895123 -0.084567845 0.028092481 0.023326615 0.047896873
) 0.0794461 0.00070067495 -0.060259387 -0.035731245 0.092661105 -0.057558645 0.010822218 -0.013599844 0.004590621 -0.0025945024
일본 0.07556521 0.06755657 -0.036598675 0.052523762 -0.120746635 -0.01616191 0.040114522 -0.08634878 0.022256177 0.12769005
낮 0.06421753 -0.1750189 -0.2822741 -0.21197852 0.15191637 -0.24415262 -0.22093529 -0.02135575 0.21251176 0.08661023
아이 -0.00062100956 -0.04285739 -0.023831317 -0.024963507 0.018276673 -0.041720547 0.04964564 -0.063309185 0.041552752 0.08007412
;; 0.075617746 0.029590728 -0.061740257 0.044062577 -0.043684192 0.0061333827 0.05073285 -0.046214655 -0.082721725 0.026593152
오 0.07617899 0.008583372 -0.06462304 -0.018111303 0.04751261 0.024353053 -0.03803651 -0.04960951 0.0522327 -0.051013507
반전 -0.045571186 -0.012464215 0.0029085982 -0.041180186 -0.15566412 0.01626085 -0.0068079284 0.100423634 0.023022873 -0.09322108
수준 0.08748813 0.07672593 0.046880625 0.122026324 0.029634641 0.10068201 0.13488932 -0.1869692 -0.12232105 0.09483337
다니 0.057354737 -0.052383613 -0.009021848 -0.025023764 -0.065763846 0.0052887797 -0.06936669 0.009047007 -0.03263776 0.111897714
웃 -0.004113214 -0.080420226 0.027159877 -0.08802581 0.13725112 0.015473842 -0.059389427 -0.010812459 -0.017102903 -0.0070799254
매력 -0.22902521 -0.054979146 -0.025832795 -0.14554715 0.14041011 -0.18904233 -0.011508896 0.21434528 -0.06317006 -0.23197311
맞 -0.021854809 -0.02409687 0.06883367 0.0730327 0.060541864 0.0598661 -0.0029676424 0.010655783 0.009894147 -0.03239958
인지 0.05080202 0.07321561 -0.017247332 0.076950476 -0.07581919 0.03147202 0.013110808 -0.099350855 0.098823145 0.035232566
가슴 -0.08544677 -0.09250043 -0.14440645 -0.1716183 0.15449318 -0.12732874 -0.16128777 0.04029293 0.19142312 -0.053110935
없이 0.021851363 0.063018255 0.059451528 -0.030503724 -0.14143045 0.010240988 0.0030165098 0.092551656 -0.09297519 0.07963947
원작 -0.03676027 0.10388052 0.050064176 0.057693154 0.09223594 -0.003038636 0.049478233 -0.06699294 -0.019719323 0.19248912
ㄷ -0.0030929372 -0.055740338 -0.023152715 -0.011489922 0.030730458 -0.026120901 -0.06272419 0.016884299 -0.010824353 0.02818732
인간 0.0314914 -0.06750668 -0.0985886 -0.08382243 -0.0040473766 -0.003724719 -0.16780758 0.07132054 -0.031996913 0.009448712
데 -0.08234763 -0.033417664 0.004215732 -0.013563062 -0.073212385 -0.022644024 0.01014738 0.068189934 -0.018126078 0.01961582
굿 -0.23820004 -0.1875873 -0.19442512 -0.19426304 0.345174 -0.259903 -0.17481963 0.26092073 0.21480806 -0.2986533
ㅠ 0.0018370742 -0.055298768 -0.07826832 -0.0032316318 0.04266234 -0.052121773 0.04599901 3.8105747e-05 0.059749227 -0.027875485
높 -0.049859017 0.027361745 0.07960115 0.13371858 -0.24447426 0.1964093 0.13702935 -0.10228111 -0.023991248 -0.022413444
밋 -0.08130609 -0.09281732 -0.13590033 -0.16051681 0.053964667 0.04571399 -0.12555818 0.11368861 0.09746913 -0.0876882
( 0.1036666 0.038444996 0.008882734 0.00904841 -0.055378087 0.05651642 -0.022352545 -0.050481815 -0.046717215 0.08747681
만드 -0.09628042 -0.04517319 0.07716727 0.00053888623 0.011846047 -0.029067885 0.064103305 0.0015643708 0.06747485 -0.10456083
급 -0.06690136 -0.048742894 0.00620883 0.03931724 -0.030316206 0.04314116 0.022077672 -0.08638738 0.13953982 -0.103621595
눈물 -0.14590457 -0.13923346 -0.20538451 -0.13832887 0.13918604 -0.14270556 -0.15271334 0.113989614 0.13845494 -0.046445243
보여 -0.123806424 -0.015689654 0.07178251 0.030128108 -0.13462937 0.16588414 -0.00012178631 -0.048946332 0.05619596 -0.1041109
준 -0.115419015 -0.06021179 0.02734312 -0.07435644 0.10136703 0.04472523 -0.021322593 0.15793516 -0.09727669 0.0064882683
찍 0.02921413 0.019327536 0.060137935 0.03189488 0.12333834 0.073139675 0.12625973 -0.09310168 -0.05090937 -0.05718186
인가 0.06135565 0.019595854 0.0496411 0.025733925 -0.023275191 0.0070257364 0.033866502 -0.045290243 0.0037039563 0.007179093
노 0.41535792 0.60560805 0.28197348 0.26145056 -0.3454828 -0.017887771 0.30277908 -0.27333382 -0.44115943 0.5569932
을까 0.038212396 -0.0197275 0.033057876 -0.04852404 -0.061426762 -0.069608375 0.029107312 0.062407132 -0.04531323 0.091409974
용 0.057044424 -0.052787825 0.093034945 0.0069675 0.01732274 0.021427015 0.029171387 0.02373459 -0.037362106 -0.005420736
코미디 0.005929169 0.051399607 0.008644993 0.006775601 -0.05870237 -0.0062732063 0.04446839 -0.026427444 -0.012893873 -0.0757723
마 0.060112283 0.052334603 0.033049256 0.054706115 -0.111727275 0.021931171 -0.0016802681 -0.07539204 -0.054794397 0.14371549
화 0.08223747 -0.033980627 0.043372687 0.048976 -0.05891654 0.020524237 0.027409162 -0.1018652 0.021731291 0.04246694
신 -0.088098064 -0.04609877 -0.010665078 -0.008961994 0.16920619 -0.07662628 -0.06304137 -0.029962434 0.10587983 0.05911551
모든 -0.051551756 -0.09605187 -0.04566663 -0.06306818 -0.046759967 -0.005430265 -0.015052441 0.14940456 0.07201771 -0.037433166
쓰 0.08933381 0.04966871 0.042426374 -0.006972247 0.12850513 -0.0026730532 0.058487397 -0.07480829 -0.06510152 0.085101925
여 -0.012279763 0.03429102 0.031580735 -0.034020264 0.05685622 0.039280888 0.011240714 -0.0044713556 -0.02145599 -0.0071885358
5 -0.051372927 -0.012286952 -0.07010918 -0.069076695 0.29066557 -0.14289589 -0.046641592 0.030801626 -0.035612483 -0.0053946604
아직 -0.14257275 -0.021601696 -0.12698288 -0.09130783 0.18865728 -0.1652369 -0.118720695 0.122968465 0.003802559 0.04852944
추천 -0.08243566 -0.1206709 -0.07260002 -0.09240351 0.08195729 -0.009492981 -0.07496485 -0.029368535 0.12623508 -0.046366002
처럼 -0.065554716 -0.049205173 -0.04755025 0.001047658 -0.026009412 0.029287098 -0.04304262 0.065665245 -0.010329936 -0.0720544
눈 0.042234555 0.097420596 0.011136534 -0.011922949 -0.22965713 -0.06501469 -0.04911833 -0.07409269 -0.07597304 0.11881942
아닌 -0.017029885 0.15367198 0.16240576 -0.017513184 -0.2987498 0.105481975 0.10756365 -0.00074311846 -0.23243184 0.23580109
자체 0.012370543 -0.007925928 0.0035717266 0.03495233 -0.04302304 0.060109418 0.023474647 0.036546484 0.124362394 -0.15543015
울 -0.18628779 -0.11592178 -0.19803011 -0.09747086 0.18649587 -0.07202894 -0.17701897 0.09338728 0.16252625 -0.114395484
몰입 -0.20557411 -0.08322753 0.0008434426 -0.11811262 -0.050949007 0.09328312 -0.034914255 0.1931734 0.096463285 -0.32249504
4 0.012212665 0.077821106 0.067926876 0.07045957 -0.11446774 0.029804258 -0.0015733048 -0.015446162 -0.106576025 0.15169904
대박 -0.17321666 -0.13352059 -0.10641854 -0.23967822 0.063701265 -0.15436655 -0.15761293 0.20008731 0.15821281 -0.07396094
몇 -0.011438118 -0.058759406 -0.08472526 0.004832988 0.09142635 -0.082646646 0.010229406 0.0002973587 0.14684854 -0.02084522
스럽 0.12653106 -0.009047071 -0.003641974 -0.0014188448 0.047160827 -0.077861644 0.0009240337 -0.05156508 0.011808043 -0.039006516
실망 0.34661245 0.46735564 0.17751592 0.3059173 -0.5670178 0.27051118 0.13944681 -0.41177228 -0.19557133 0.691334
는다 0.13381444 -0.110326685 0.045699716 -0.0024428137 -0.036540236 0.005473263 -0.023449628 -0.120486215 0.13255979 0.023197748
대한 -0.021624893 0.009902143 -0.055805594 -0.006858212 0.12607047 -0.13984343 -0.038949173 0.010838402 0.090673365 -0.0008802341
죠 -0.025118602 0.01616834 -0.019712003 -0.03340589 -0.12006398 -0.04747885 -0.0034127499 0.16726479 0.03920859 -0.08169209
란 0.013916285 -0.048881765 -0.024994645 0.013506552 -0.025455821 0.00038254427 -0.06520631 -0.05506441 0.027582664 -0.0413885
그런 0.1443204 -0.015584546 0.001523169 0.031176211 0.04714816 -0.10264501 -0.031978384 -0.0037302966 -0.004931996 0.10994921
솔직히 -0.019325001 0.05187444 0.0006031218 0.017964734 0.021402717 0.07691642 0.055630203 -0.020270096 -0.13121091 -0.049003158
캐릭터 -0.008908876 -0.045770902 0.057630148 -0.018040115 -0.09381055 0.04827525 0.05705293 0.08710761 0.052346002 -0.031095123
ㅎ 0.00023487287 -0.058842864 0.03259084 0.06621241 0.022509582 -0.11254551 0.0046987687 -0.15621613 0.1723827 0.015168904
모두 -0.09934142 -0.12224735 -0.01713911 -0.0037216602 -0.050489366 0.11343915 -0.024366722 0.16821805 0.025382878 -0.20695816
아주 -0.0903672 -0.015356092 -0.021381827 -0.017677395 0.0423066 0.072604455 0.0038588035 0.01751835 -0.046218738 -0.060576163
- 0.0028033403 0.015814837 -0.03413091 0.05989449 0.033221863 -0.08546041 0.07520416 0.005073148 0.0062141432 0.17034535
가족 -0.09466346 -0.03137679 -0.071159124 -0.06551735 0.039210957 -0.0964735 -0.034788847 0.12003333 -0.0016605464 0.09111501
여운 -0.35947147 -0.4228681 -0.19157736 -0.15940596 0.32556966 -0.26694867 -0.20591857 0.19965613 0.38175508 -0.5161519
건지 0.040309366 0.121781655 0.09042928 0.036627594 -0.14034131 -0.02914781 0.16555037 -0.05038803 -0.053796668 0.061129738
전혀 -0.08598619 0.13582045 0.06747013 0.055832963 0.06033977 0.02658295 0.095710434 -0.13492283 -0.14155743 0.32077157
연기력 -0.06328923 0.030780062 0.01398074 0.09870486 -0.20894791 0.098021984 0.0028509023 -0.031396408 0.09242485 -0.056712493
나라 0.10828076 -0.047330037 0.009975304 0.02060675 -0.047931425 0.031267133 -0.038366355 -0.08372784 -0.025017494 0.049129944
후 0.005047797 0.066290274 0.057026334 -0.00087871106 0.045675885 0.012447639 -0.036673974 -0.023514904 -0.13371389 0.1955493
될 0.03967152 -0.029982118 -0.009396401 -0.0881894 0.14672035 0.070088185 -0.00073879753 -0.061593384 -0.055406794 0.066509925
다면 0.07254099 0.04920462 -0.006328095 -0.095262155 0.06454902 -0.09045538 -0.050507847 0.04424541 -0.040738136 0.1101124
뭔가 -0.075408876 0.005186108 -0.011696051 0.04750728 0.12416184 -0.0459079 -0.028474877 -0.023081178 0.044749465 -0.10436359
그래도 -0.14563167 -0.039937645 0.0414808 -0.01679583 0.32594365 -0.10824519 -0.0043521984 0.07071813 -0.01939821 -0.18695942
; -0.027712116 0.070351474 0.06866547 -0.016813079 -0.058976907 0.024277678 0.04989399 0.07032715 -0.12851499 0.005298534
시리즈 -0.033674326 -0.10247556 -0.025591988 -0.060294837 0.061545223 0.05299851 0.0015072109 0.08419527 0.07398895 -0.0328619
근데 -0.05676003 -0.038401995 -0.114475384 -0.083765805 0.11006908 0.068767786 -0.10749518 0.050489422 0.008568229 -0.06435356
작 0.12304424 -0.0030335814 -0.12322355 -0.042842817 -0.090384915 0.042993054 -0.044875104 -0.03824594 0.07436926 0.075566396
표현 -0.18725939 -0.106269896 -0.1072909 -0.124298684 0.047372766 -0.1134614 -0.072505414 0.08650032 0.027624493 -0.15168148
모습 -0.021015076 -0.109145336 -0.0041755987 -0.12691996 0.17380756 -0.13329709 -0.017342608 0.021688912 0.0024701625 0.029349307
공감 -0.11860849 -0.102683544 0.04717209 -0.03716535 0.122094795 0.054909542 -0.044722136 0.079628885 0.06328373 -0.28382644
계속 -0.0910847 -0.029880665 -0.0139621645 0.027995747 0.083801955 -0.09682151 0.045885064 0.03295057 0.16157115 -0.22705065
먹 -0.03896463 0.119137384 0.031920742 0.043005306 -0.11672267 -0.0497577 -0.011317234 0.0019428907 -0.10119615 0.10321337
"" -0.08078439 0.049407538 -0.014292616 -0.04539796 0.10313401 -0.0461038 0.04530055 -0.0021548537 -0.13169128 0.021652862
제목 0.15540738 0.037239496 -0.05899319 0.013651336 0.046683047 -0.122138105 -0.012831755 -0.12137012 0.07443792 0.24224545
7 -0.07422489 -0.015554284 -0.17046416 -0.11607802 0.16793287 -0.009195811 -0.09692753 0.060724575 -0.040115662 -0.008341863
이랑 -0.040624145 0.058741476 0.06414078 -0.0026073442 -0.16888358 0.12817983 -0.021984978 -0.06006161 -0.10263664 0.052166395
극장 0.09270395 0.04812159 0.0826573 0.0101545425 -0.03858177 -0.040537633 0.02331458 -0.079084575 -0.080249764 0.12406342
치 0.08238586 0.13007958 0.060832385 0.050169732 -0.058221422 -0.068179846 0.06127826 0.03653823 -0.07188074 0.118218794
비 0.1469869 0.026576836 -0.00076519296 0.075785235 -0.0893632 0.087940514 0.02935342 -0.104115516 0.0494985 0.22530597
이걸 0.13176087 0.10704968 0.036500856 0.10088242 -0.14840539 0.19293685 0.11053218 -0.1655749 -0.09270527 0.14986986
진 -0.1242782 -0.048158202 -0.014812136 -0.06386489 0.0030109563 0.12425726 -0.037554707 -0.03265943 -0.07833984 -0.13300447
바 0.18004362 0.23199113 0.07241085 0.17394885 -0.05941762 -0.20339969 0.16176449 -0.13002084 -0.018727085 0.23525248
대사 -0.020488456 0.020419149 0.06851052 0.074203186 0.057041258 -0.06120305 0.051748764 0.039572418 0.10913664 -0.09042364
부분 -0.004283779 0.08265384 -0.0041607176 0.05711388 -0.09029593 -0.119067326 0.01515934 0.012933724 -0.015617125 0.08287709
그렇 0.21635592 0.09044167 -0.006770085 0.056979164 -0.092860565 0.1345832 0.10209163 -0.20975393 0.031587426 0.15389057
개봉 0.112122856 0.06370146 -0.036292788 0.06415775 -0.13365468 0.007468142 0.070842765 -0.018030804 0.019097004 0.064882435
0 -0.073874995 0.10983007 0.2503108 0.17079364 0.011402706 -0.07973924 0.23125967 -0.13345443 -0.048196465 -0.06400369
OO 0.02957476 0.114375755 0.08080343 0.053177536 -0.09900936 0.059048135 0.01790961 -0.04029251 -0.14224876 0.1524361
대단 -0.064900614 -0.11916357 -0.083378665 -0.12997194 0.15734363 -0.10882333 -0.071592756 0.078516476 0.0030625176 -0.058308415
어디 0.07655311 0.07594649 -0.034034222 -0.013556358 -0.0001442004 -0.15195577 0.04453124 0.09052666 0.044632684 0.18417363
작가 -0.047960978 0.116082884 0.102559134 0.022756256 -0.09140568 -0.05066391 0.10800793 0.015893487 -0.045430806 0.0060467003
된다 0.10087236 -0.1425311 -0.071626574 -0.086121894 -0.13699467 0.077898435 -0.103986986 -0.0550499 0.1820078 -0.028671963
아쉽 -0.039367504 0.07563107 -0.028082814 -0.07409748 -0.06658148 -0.07864961 -0.10930728 0.10224941 -0.07004056 0.15901476
기분 0.15398964 -0.07755918 0.0038828554 0.039366644 -0.31363714 0.030903583 0.07077818 -0.054464944 0.08502291 0.032063324
제 0.042655822 -0.065700576 0.0748237 -0.07202754 -0.0957685 0.07318262 0.005979724 0.03208432 0.0010717 0.0036853177
진심 -0.03577447 -0.02887743 0.05766417 -0.029924579 0.08807279 0.010107063 0.046774555 0.01572941 -0.06175705 -0.028621696
타임 0.074380346 0.09770395 0.063811146 -0.010101794 -0.09498913 -0.114275135 0.028242175 -0.029213596 -0.043614663 0.058544856
/ 0.020302173 0.017592208 -0.054963797 -0.001178984 -0.022543306 -0.035544988 0.00016749039 -0.049436584 -0.0017644415 0.042204555
웃기 -0.024812149 -0.0497746 -0.08365661 -0.04745227 0.2696005 0.005280363 0.032005876 -0.09847971 0.094313264 -0.10452747
보이 -0.077843204 0.04396976 0.004015261 -0.039179154 0.10638685 -0.05856405 -0.0041186516 0.0066330857 -0.05555117 -0.012878132
놓 0.11502876 0.048894167 0.09667325 0.011481252 -0.092890285 0.08638058 -0.011210043 -0.023029845 -0.15431312 0.1268797
해도 -0.048398953 0.01551827 0.10396607 0.014260549 0.037992015 0.010698656 0.023912985 0.09448694 -0.080652446 -0.06474386
이제 -0.056177735 0.11508163 0.039634965 0.04647809 -0.122721426 -0.07742283 0.013641065 0.06923686 -0.023938376 0.13594407
물 0.04999463 0.043208137 0.06256212 0.015031868 -0.15159307 0.027676681 0.07392115 -0.06553589 -0.028431332 0.02350689
봐야 0.04980447 -0.15204938 -0.12248621 -0.16756132 0.1829199 -0.061540224 -0.16604856 0.029278219 0.12373478 0.03635127
막장 0.27854776 0.12160476 0.088146225 0.1512036 -0.14647645 0.33274618 0.14304745 -0.17225498 -0.25606436 0.2977605
삶 -0.19566147 -0.05338723 -0.10258498 -0.24787787 0.066182844 -0.15378226 -0.17324708 0.3109925 0.011628676 -0.11698721
친구 -0.052255224 0.043606203 -0.009152785 0.003476586 0.09085711 -0.17040862 -0.037256844 0.10355965 -0.051032856 -0.034402557
잔잔 -0.022127636 -0.062542155 -0.0565681 -0.054298077 -0.14439459 0.028321315 -0.11287076 0.027722443 0.083144926 0.04252862
조금 0.16800211 -0.027061108 -0.06307059 -0.11878859 0.042649835 -0.06780457 -0.073268205 -0.0818237 0.01726135 0.3264714
씬 -0.0394923 -0.0078898 0.044296667 -0.13156043 0.10740908 -0.0753586 -0.003101145 0.01406426 -0.027977536 -0.00218778
딱 -0.023262938 0.04630132 0.022026557 0.08596434 0.15955044 0.007266322 0.10401226 -0.056854572 -0.048409447 -0.07319123
영상 -0.002646764 -0.05321748 0.054535728 0.039434183 0.16807148 -0.07713193 0.018810531 -0.041013293 0.07083952 0.034377445
억지 0.34985703 0.21957013 0.21101141 0.036819182 -0.2867589 0.16415752 0.14617687 -0.17425214 -0.2776424 0.44937223
찾 0.038138017 -0.012196555 0.024173887 -0.053880215 -0.045516893 -0.06655045 -0.04050401 0.04461128 0.052133642 0.01901439
요즘 -0.00850946 -0.17426997 -0.1623193 -0.18432003 0.12125106 -0.12313497 -0.15721372 0.07923302 0.19490325 0.0055786427
같이 -0.038715236 -0.011799231 -0.00058115466 -0.032896686 0.06809898 -0.026775721 -0.023863649 0.00096412626 -0.07670783 -0.018428603
중간 0.10457642 0.09721971 0.026380539 -0.0032240085 -0.04058911 -0.09994815 0.063013226 0.014736505 -0.031866197 0.15686128
" 0.017405847 -0.018858269 -0.07568922 0.026583439 -0.015034737 -0.023893727 -0.050733745 -0.08809734 0.11928702 -0.071021326
구 0.06700011 -0.04207984 -0.026183775 0.05622635 0.074426234 0.031851366 0.0034750758 -0.15601267 0.13867666 -0.0826527
라도 -0.041535914 0.0643993 0.0705843 0.04178451 -0.04531302 -0.008596206 0.023704024 0.004879112 -0.041982677 -0.016012318
스릴러 0.03767954 -0.033683572 0.020440696 0.056882516 0.004585241 0.09371209 -0.007131796 -0.031248208 0.084713645 -0.11352706
가지 -0.0026815673 0.038175497 0.0047161737 0.000325039 0.04611818 -0.041678786 0.012420848 -0.05951574 -0.06643041 0.028366199
8 -0.1343939 -0.13501261 -0.0738165 -0.1459833 0.10633765 0.0034943344 -0.13512501 0.06718593 0.00930745 0.039275046
믿 -0.067464806 -0.13574621 -0.078156814 -0.09120226 0.18773328 -0.058735207 -0.056540005 -0.005123297 0.08468863 -0.12170797
싫 0.21425653 0.18335146 0.06427559 0.07214785 -0.14732802 0.36723906 0.06472375 -0.18347181 -0.23893446 0.3075311
.... 0.09404308 0.0053401417 0.05979123 0.08489166 -0.16491002 -0.0051182043 0.094792776 -0.066115715 0.1010797 -0.04431054
나왔 0.020809855 -0.023185128 0.024002472 0.021199936 -0.17726396 0.045372553 -0.042096656 -0.02679685 0.09524742 -0.053398535
아까운 0.23111373 0.0044803987 0.08212387 0.12379701 -0.25097778 0.20087235 0.053854447 -0.15134138 0.11311595 0.008905621
긴장감 -0.24139734 -0.074167915 0.018260818 -0.12519816 0.114105076 0.053815454 -0.055243865 0.18426825 0.023039464 -0.3336866
점수 0.022721482 -0.027923625 0.022036226 -0.034368195 -0.00095279934 0.012589683 0.04269118 -0.040054213 -0.08189939 0.06936677
개인 0.10408931 -0.006551178 -0.00997988 -0.06645076 -0.08632599 -0.05572153 -0.023900826 -0.020175166 -0.011001432 0.051730894
제대로 -0.15916228 -0.09571312 0.0037815948 -0.0632076 0.123020016 0.07592911 -0.009530518 0.03356304 0.016299035 -0.12896252
부족 0.27403396 0.054503478 0.060953762 0.01847217 -0.19351928 0.0026938524 0.02044045 -0.038818605 -0.09157058 0.31670716
이유 0.12896354 -0.004096725 0.01871033 -0.007957395 0.20079581 -0.045787875 0.022437342 -0.027779613 -0.03172809 0.08131984
노래 0.10267247 -0.015741825 0.0035858222 -0.008098372 0.07039856 -0.0021031077 -0.017336864 0.057175208 0.0038453457 0.052207522
만큼 -0.069886155 -0.03198936 0.008395802 -0.053438958 -0.005187658 0.13296394 -0.050612923 0.050996143 0.08046385 -0.14877069
라면 0.029744856 0.013654948 -0.0817438 -0.09396614 0.06505463 -0.090665765 -0.07180118 0.06650381 -0.041067876 0.026576484
시작 0.05464196 -0.011144376 -0.06442924 0.02156015 0.12662603 -0.06468714 -0.0040372266 -0.12474236 0.041942354 0.036666807
구나 0.010829521 0.044395085 -0.0001982686 0.0059879594 -0.003043636 0.09282687 0.032639805 -0.027295507 0.017564613 -0.029603481
잇 -0.06743347 0.013145669 -0.031051176 0.018979477 0.014390577 -0.04736034 0.0028273494 -0.016727207 0.07629905 -0.053030986
특히 0.02338107 -0.15529756 -0.10275434 -0.020750187 0.06742614 -0.14335302 -0.09809683 -0.114053205 0.23149313 -0.050388318
한테 -0.059787825 0.060518723 -0.035751417 0.0661763 0.08713033 0.04050845 -0.023064712 -0.08058261 0.02916078 0.036270503
날 0.022355188 0.0053642164 -0.034726676 -0.087276645 -0.052026536 0.052773163 -0.09706216 0.0065297536 -0.011425804 0.02711309
려고 -0.032291234 0.11035645 0.12734576 0.038997106 -0.03839666 0.014278566 0.09114571 0.02957085 -0.1427295 -0.012092216
제일 -0.08606462 -0.013608699 0.027981205 0.054901447 0.10924089 0.053066097 0.018959489 0.045597497 -0.030179208 -0.14802848
아름다운 -0.2271729 -0.08521093 -0.07899743 -0.0868401 0.34631354 -0.30156386 -0.031497348 0.08007351 0.19383824 -0.30313262
시대 0.059613675 -0.056738935 0.0066968887 -0.050470162 -0.088229366 0.09395466 -0.006805956 0.036324643 -0.022890994 -0.11250287
ㅜㅜ 0.08099774 -0.0038092083 -0.028926956 0.06345963 0.0039095357 -0.06452359 0.05146184 -0.13097733 0.1803404 0.11380272
어떻게 0.051945478 -0.02126486 -0.00887073 -0.0031687578 0.10193434 0.012704451 -0.07716512 -0.04728361 -0.075430766 0.05443464
엔딩 0.09783379 -0.06714219 -0.05335813 -0.056294277 0.0854342 -0.07873634 -0.047608126 0.017659226 0.049950026 0.09916598
당시 0.0792448 -0.103611544 -0.03662153 -0.0499632 0.12300332 0.013237268 -0.030009553 -0.028211135 0.043931864 0.12049398
하지만 0.030760529 0.012426658 -0.026032636 -0.08786101 0.12358692 0.20703147 -0.13216563 0.003031818 -0.2817218 0.12091147
나름 -0.034113843 -0.034667738 -0.029056769 0.008206707 0.117175646 -0.12858006 -0.02671477 0.034346025 0.05539451 -0.07225544
봐 -0.059481066 0.042091098 -0.052775323 0.015663287 0.111950085 0.02884964 0.050543517 -0.054986235 -0.09158799 -0.13130462
무섭 0.020841647 -0.061096895 -0.020473454 0.022234075 0.14989011 -0.033020377 0.07111166 -0.03080831 0.12947917 -0.1497702
나온 0.25564697 -0.04803604 -0.010932011 0.047843322 -0.12282372 -0.027819145 0.008940956 -0.013138341 0.106371865 -0.0054297256
명 0.012964963 -0.0004959083 0.052416682 -0.03122369 0.008766867 -0.012977923 0.0156077035 0.023133658 -0.15197454 -0.022248836
사 -0.09816625 -0.06373888 -0.06862073 -0.04919539 -0.015766667 -0.0046703015 -0.040862624 0.10607532 -0.021292094 -0.08793453
니까 -0.046003126 0.0029571268 -0.040759124 -0.08567861 0.023668583 -0.02159093 0.005885699 0.11199882 -0.07147582 -0.0750747
오랜만 -0.09340641 -0.08616961 -0.031488948 -0.028723849 -0.012532976 0.16151658 -0.0888068 0.06552452 0.12615554 -0.023555135
이것 0.050770964 0.027211929 0.0070212134 0.08128071 -0.1398213 -0.072441705 0.015477185 -0.085528076 0.14180605 -0.0071111973
해요 0.037442937 -0.03352239 -0.11292083 0.07773114 -0.039045088 -0.12479873 -0.0011082118 -0.09349605 0.2002533 0.041346733
9 -0.290851 -0.051691957 -0.11722689 -0.11270667 0.29012293 -0.22542332 -0.0598046 0.1938051 0.065815225 -0.30249548
팬 -0.103736736 -0.0314556 0.013830448 0.0018296551 0.010393102 -0.07589838 0.03187027 -0.0014373283 -0.05361245 0.015457797
차라리 0.6370666 0.39615318 0.27974847 0.3354769 -0.39672306 0.07530978 0.36637563 -0.493732 -0.19806373 0.56650597
절대 0.018466068 -0.015047417 -0.022122182 0.059494253 -0.09165719 0.15730652 0.028756563 -0.119920686 0.03416434 -0.005255245
세상 -0.013591353 -0.06825262 -0.0704684 -0.09386593 0.11424916 -0.011567767 -0.023977151 -0.03048612 0.02781428 -0.04071136
세 -0.050653107 -0.0476949 -0.040233955 -0.009693089 -0.009064967 0.06794733 0.003919833 0.07628935 -0.03033905 -0.0403136
못하 0.09224669 0.09816229 0.056248695 0.047970466 -0.06493354 0.16884634 -0.0008267355 -0.056230962 -0.10676401 0.29874706
의미 -0.00702623 -0.0049778204 0.024865758 -0.0919375 -0.04196564 0.0031776072 0.020222895 0.11235122 -0.007371629 -0.11079793
던데 0.14217734 -0.11183796 -0.12696007 -0.009626632 0.07111601 -0.060103055 -0.06296774 -0.18441963 0.20627601 0.116934784
봄 0.07954241 -0.055440918 -0.029410187 -0.013025191 -0.06293866 -0.06058831 -0.009488697 -0.039784033 0.10523828 0.026258739
욕 0.24246861 0.22938192 0.13290402 0.16724418 -0.22086482 0.16864851 0.07315915 -0.20747398 -0.18140352 0.3375158
훌륭 -0.22099383 -0.16439284 -0.107257426 -0.16398372 0.32597053 -0.20493852 -0.06613007 0.16922729 0.08053599 -0.30274794
너무나 -0.1476957 -0.061576318 0.032742903 -0.018398263 -0.0005639378 -0.06933601 0.01774001 0.100467846 0.019719144 -0.132452
강추 -0.14480188 -0.21791324 -0.19465347 -0.18027224 0.07371668 -0.039403785 -0.25839776 0.17730066 0.17209421 -0.12870193
감 0.029994436 -0.04983825 0.007191648 0.056791227 0.037275538 0.092681155 0.01675711 -0.041873325 0.015734248 -0.047599815
됨 0.0678236 -0.1062387 -0.016499735 -0.08864058 0.05847509 -0.046885446 -0.06621803 -0.08717621 0.13685954 -0.023519399
ㅡ 0.016959252 0.025780628 0.0008260623 -0.011279972 -0.03735957 -0.05173122 0.048448466 -0.04123651 0.009194461 0.14016318
따뜻 -0.24373528 -0.18745561 -0.1057927 -0.11868177 0.17023899 -0.13816172 -0.08431404 0.109366074 0.09777103 -0.08527507
빼 -0.07791751 0.14049561 0.19114684 0.056330577 -0.050718233 -0.10235552 0.102746375 0.08640764 -0.17528623 -0.09451879
느끼 0.022780651 -0.055919148 -0.070024945 -0.10710647 -0.026830316 -0.0094044525 -0.10266039 0.097562246 0.006463061 0.04378033
해야 -0.03947227 -0.019534692 -0.048644178 -0.03436621 0.009397429 0.032134015 -0.030749299 0.0054222774 -0.055748787 -0.037254125
드 0.059119895 -0.071189955 0.0042962735 0.052203506 0.11101393 0.020813847 0.0337646 -0.12719691 0.10219971 0.033098783
도대체 0.050019097 0.13325356 0.17250815 0.092601694 -0.21453919 0.17776062 0.08210641 -0.12758927 -0.26740155 0.15627956
어야 0.018170875 0.037390742 0.11424349 0.08306146 -0.043799277 -0.08841169 0.09853954 -0.03332551 -0.027104279 0.15310226
답답 0.18925159 0.13727649 0.13114162 0.16783004 -0.23079482 0.19707057 0.12505695 -0.15034384 -0.22572123 0.18365315
마다 -0.14787665 -0.0062422534 0.039787248 0.056917973 -0.05362463 -0.0011576464 0.06760398 0.006697972 0.05921865 -0.064864755
준다 0.1712182 -0.010203142 -0.043154974 0.14833547 0.03172765 0.07762144 -0.037218988 -0.33946896 0.22558141 0.1007159
글 -0.008089981 0.098523565 0.06548 0.031760775 -0.040723458 0.07597191 -0.027192622 0.028647311 -0.15713178 0.01947648
전쟁 0.0018910408 0.056834817 0.014184238 -0.027754715 -0.13284914 0.07356307 -0.07762461 0.09523379 -0.103800155 0.0869798
놈 -0.069124155 0.029375315 0.03619591 -0.037629317 0.13499951 -0.022722287 -0.0453078 0.10131347 -0.14926401 -0.021398675
설정 0.0032087301 0.07586068 0.06855534 0.08649197 -0.011486543 0.016648997 0.11378125 -0.16317874 0.024202568 -0.09486464
무엇 0.06835963 -0.038420822 -0.14403735 -0.019578012 -0.015331867 -0.07433038 -0.030960742 -0.05451916 0.17330675 -0.010048047
수작 -0.35447735 -0.38909236 -0.36484197 -0.24039485 0.19570225 -0.3749355 -0.45091918 0.24562564 0.38706344 -0.20548166
만화 0.10664286 0.030890498 0.0366836 0.013102196 0.09235644 -0.03703264 0.019624611 -0.07282172 -0.026413608 0.21672909
흥미 -0.16661604 -0.055669554 0.09607905 -0.0141912885 0.17182508 0.12123268 0.007459238 0.12788892 -0.13060144 -0.17652069
그저 0.2812064 0.034232657 0.053177938 -0.0009804122 -0.24703674 0.13357648 0.03418744 -0.03576928 -0.1253195 0.16153899
감정 0.014455991 -0.093731545 -0.09546742 -0.07421369 -0.029077893 -0.14417735 -0.080849096 0.113734804 0.04866478 -0.03600508
미국 0.07494139 0.016035765 -0.025240477 -0.07220022 0.07570783 0.0698556 -0.08804294 -0.03243461 -0.10214978 0.14272599
신선 -0.2204751 -0.15183689 -0.042658914 -0.18656133 0.27996004 -0.048460796 -0.110593006 0.097509004 0.110217996 -0.17827249
행복 -0.16072083 -0.14873151 -0.0913692 -0.097630575 0.066633835 -0.15911053 -0.082194336 0.09156032 0.19916959 -0.19859576
뻔 0.059311826 0.08696261 0.06380554 0.035057403 -0.18702063 0.0007213311 0.056276992 -0.017041473 -0.06881619 0.05899561
형 -0.017276458 -0.05030821 0.0038322865 -0.09320722 0.15056956 0.10043461 -0.074517116 0.13255368 -0.099724464 -0.07528516
앞 -0.071742736 0.018935125 -0.019951921 0.004270413 -0.026738057 -0.11280648 0.002852187 0.16420598 -0.03613119 -0.05861244
허접 0.23694678 0.23538683 0.3207005 0.29786617 -0.2988435 0.0982729 0.3133996 -0.24574302 -0.17853117 0.3313435
어도 -0.010111598 0.04596702 0.040421084 -0.0141791925 -0.046992548 -0.05125849 0.026573638 -0.03907081 -0.06558618 0.029052159
군 0.032831702 0.03755944 -0.039484374 0.07341609 -0.07816056 0.083726555 -0.02081439 -0.018388174 -0.03274125 0.06603119
시절 0.043919403 -0.12804106 -0.08771374 -0.07244577 0.020610632 -0.070809595 -0.029859941 -0.080036536 0.1403085 -0.012389867
관객 0.18259388 0.10027038 0.14657025 0.14449301 -0.06362524 0.05528151 0.09628478 -0.13720162 -0.11259716 0.15514351
배경 0.04391322 0.04252609 0.010465021 -0.060834307 -0.022792276 0.0208456 -0.025242262 0.06793522 -0.021850716 0.00078582374
6 -0.08427541 0.012395262 -0.04374103 -0.022130495 -0.073398694 -0.031140504 -0.08067623 0.084619164 -0.05653917 0.07031301
초반 0.13707697 0.012160139 0.03352196 -0.05510987 0.2290159 -0.055830542 0.021704633 -0.0847772 -0.108258344 0.2903751
사실 -0.13688736 -0.17186281 -0.14705412 -0.04498787 0.13046274 0.050996374 -0.112891495 0.1250588 0.10017651 -0.19900817
웃음 0.03565542 -0.0049038287 -0.0014692968 -0.022735212 -0.039732896 -0.044781223 -0.07289041 -0.017624607 0.0055194055 -0.061741617
답 -0.012292581 0.06664662 -0.0109546995 0.012283837 -0.040573053 -0.16672455 0.042086862 0.010803695 0.041367043 0.03180761
엄청 -0.02087231 -0.09355378 0.03954271 0.032478184 0.09071458 0.008533298 -0.015624986 0.009660857 0.08728993 -0.19655414
더라 0.18620472 -0.11319118 -0.056768086 -0.108691804 -0.12436667 0.026835738 -0.08304202 -0.062828265 0.11903412 0.06784386
라니 -0.003103308 0.033784002 -0.00030169575 -0.058639355 -0.12178844 0.05717645 -0.117196694 0.08038629 -0.08002269 0.109409526
질 0.104029596 0.082570516 0.10230946 0.049001515 0.013177798 -0.0040809503 0.11504475 -0.050699744 -0.065246366 0.27240407
자신 0.071245775 0.013177812 0.0011559315 -0.02497973 0.06748549 -0.07727953 -0.009867672 -0.12625903 0.08823866 0.17745045
추억 -0.1737175 -0.0069226054 -0.05300676 0.027516892 0.10858191 -0.023276223 -0.0737326 0.011666745 0.05926987 -0.15935336
캐스팅 0.0261963 0.056363598 0.079196155 0.15674983 -0.034855615 0.0734222 0.07923376 -0.07850564 -0.08507719 -0.01818394
첨 0.119729795 0.020724088 0.04035078 0.010289626 -0.040541798 0.061583504 0.0051760203 -0.124509245 0.060534675 0.043582313
멋있 -0.18170731 -0.15387529 -0.15615402 -0.26020434 0.16364676 -0.1917205 -0.15100017 0.21420845 0.18937813 -0.14988106
류 0.012256629 0.04072706 0.02604337 0.116634555 0.20102556 0.0810591 0.15517507 -0.13963078 0.100631945 -0.15250914
어색 0.15044457 0.28159767 0.13325101 0.17366277 -0.14821006 -0.039906047 0.21626091 -0.14501311 -0.09799043 0.21355724
시나리오 -0.036127232 0.012512461 0.13333996 0.07141607 0.07555423 0.10439194 0.08451414 -0.071964085 -0.034674745 -0.10990489
머 0.19571824 -0.015889125 0.06828942 0.0046603014 -0.043301564 0.0009849058 0.086467795 -0.06300947 0.045986526 0.14316209
밖에 -0.08881658 -0.039125443 -0.069396384 -0.076887675 0.0769498 0.034756836 -0.07666034 0.019901201 0.06453005 -0.01483899
OOO 0.15888561 0.20180622 0.15383498 0.14069976 -0.25204384 0.22178678 0.12177808 -0.11999609 -0.32546264 0.30598092
슬프 -0.10985371 -0.08940003 -0.12948635 -0.25076106 0.15176463 -0.06749853 -0.24358213 0.054565664 0.10921911 -0.036668614
정신 -0.025801662 0.098329455 0.10594083 0.07881111 -0.06534191 0.06990195 0.09199268 -0.07923561 -0.04813651 -0.09413696
분위기 0.005963424 -0.056663178 -0.0268527 -0.053997956 0.17436948 -0.2091578 0.006808909 0.027486367 0.11206157 -0.029023476
소름 -0.1998842 -0.17497759 -0.15535487 -0.13581495 0.13158748 -0.10841655 -0.14989656 0.12162272 0.19972737 -0.16128452
멋진 -0.15719093 -0.17150795 -0.11107327 -0.14296603 0.25298852 -0.12293489 -0.0013810026 0.065833144 0.10894925 -0.22693384
힘들 0.3687252 0.055693325 0.047064148 0.005948095 -0.1222884 0.065642 -0.0003865795 -0.17269163 -0.03660554 0.25183794
오늘 -0.06573536 -0.0023713056 -0.07723471 -0.099512175 0.08202947 -0.110406 -0.05665823 0.0907889 -0.0317098 0.0330798
어이없 0.18830737 0.28197622 0.23974116 0.19471666 -0.328087 0.24803795 0.28468287 -0.19839321 -0.3009987 0.14750302
봐서 -0.03643928 0.031484988 -0.017363874 -0.09692403 -0.0040837983 -0.05908303 0.021072052 0.037767045 0.0533473 0.02358443
잡 0.14914583 0.07907414 -0.008490305 -0.008235398 -0.114580676 -0.09260587 0.027358871 0.038304806 0.06306312 0.12719052
구성 -0.060395904 -0.058946766 -0.015036016 0.005313878 0.008117514 0.10612251 0.0016281111 -0.023969477 0.0065241293 -0.08691041
엄마 -0.019039506 -0.060162406 -0.13288285 -0.103484236 0.038660087 -0.13056214 -0.06521667 0.13370466 0.06432484 -0.048273195
함께 -0.08604403 -0.13447931 -0.07088669 -0.15057065 0.04799172 -0.050253253 -0.1408607 0.20039217 0.07357841 -0.097872205
문제 -0.012697486 0.15045056 0.061780937 0.09416346 -0.018926924 0.06481344 0.060437262 0.008424639 -0.1580111 0.06995238
위해 -0.10162175 0.034206733 0.024520744 0.05486797 0.08400297 0.014283671 0.075587966 0.0073654265 -0.06873729 -0.09463801
졸작 0.45366314 0.50282985 0.37553084 0.31552598 -0.59869933 0.3717557 0.27736288 -0.38470817 -0.45841134 0.5826123
잊 -0.1304246 -0.08385258 -0.21025123 -0.03134411 0.2641338 -0.28483176 -0.17494535 0.08666626 0.24801898 -0.021188475
이딴 0.30999634 0.40063155 0.29693 0.32499576 -0.21096976 0.09407869 0.33277163 -0.28135246 -0.29713705 0.3566983
등 -0.13342541 -0.073196724 -0.025823077 -0.124379374 0.18633081 -0.14222932 -0.10926361 0.12752159 0.053517647 -0.010482743
집 0.0154329315 0.03320857 0.038885675 -0.0317527 -0.04400819 -0.08792493 -0.0048775016 -0.0133807175 -0.029472733 0.04323016
유쾌 -0.3556012 -0.17065023 -0.16531444 -0.38684928 0.15067488 -0.13519467 -0.27615073 0.42034894 0.046833348 -0.38679338
뻔한 0.24665473 0.18253037 0.14072478 0.025646478 -0.35895574 0.21146575 0.09131714 -0.12240294 -0.23405097 0.32612494
킬링 -0.028560799 -0.034316137 -0.035799723 -0.06992769 -0.023524316 -0.05893566 -0.010856168 0.113252014 -0.0025778543 -0.039647665
스러운 -0.022249997 -0.043109294 -0.052991625 0.04318612 -0.02783955 0.016126461 0.056260426 -0.011370969 0.23006684 -0.09883457
결국 0.107731044 -0.009923462 0.009919781 0.012007612 -0.0997035 -0.04550795 0.030328799 -0.07915831 -0.022442546 0.044664633
낫 -0.1411015 -0.03569722 0.05384016 0.005971048 0.13970366 0.033695973 0.058737587 0.100084364 -0.07890399 -0.10429185
한데 -0.10412069 -0.058359604 -0.0060828063 0.019499289 0.057395417 -0.022880957 -0.024189094 0.004086694 -0.029605633 -0.099090815
나요 0.08288675 0.01090182 -0.048507318 -0.017116461 -0.042406365 -0.16251509 -0.049209103 -0.005377714 0.068554305 0.1035201
뭘 0.01197263 0.18462175 0.048404194 0.0028067832 0.020456512 0.09336283 0.039188158 -0.061503146 -0.19335063 0.2679384
소리 0.03923162 0.083147 0.028642252 0.029262843 -0.1769943 -0.012390212 0.06398687 0.012094465 -0.10966883 -0.0048447223
간 -0.08224119 0.042702287 0.028575173 0.03894195 -0.09468474 0.13210803 0.01184765 0.022193141 -0.0026695651 -0.100421764
20 -0.09456979 0.05578599 -0.008633832 0.044418503 0.00837208 -0.08990191 -0.011081122 0.047652673 0.032519657 0.106334984
역사 0.0023850787 0.0051964037 -0.07288997 -0.019182099 0.024105327 -0.06363584 -0.034936193 0.0038612504 0.005459846 0.110367075
뭔 0.2281228 0.12765437 0.095127925 0.059283487 -0.26063466 0.09882991 0.106180646 -0.076992795 -0.13428283 0.2219582
제발 0.002151338 0.03679738 0.085544415 0.109727904 0.058500495 0.037567277 0.04999119 -0.06401174 -0.038034312 0.0015767084
포스터 0.040269278 0.059751842 -0.07236821 0.007600808 0.2288612 -0.09305216 -0.0005545555 -0.0915154 -0.06545962 0.15541813
아무리 0.12227593 0.104157075 0.06253566 0.08913988 0.07620574 -0.076037794 0.10170667 -0.17176245 0.06720738 0.07261625
코믹 0.043731667 -0.0412106 -0.056082934 -0.028067302 0.06750259 -0.0014802073 0.016840307 -0.09023045 0.0028477903 0.10471979
어떤 -0.029199088 -0.043536525 -0.09309602 -0.11178974 -0.059609544 -0.050334092 -0.06610532 -0.048311066 0.028337596 0.12360936
완벽 -0.31134203 -0.13146593 -0.2054402 -0.24930266 0.19469152 -0.17300978 -0.19831775 0.39048398 0.19432518 -0.27290183
~~~ 0.044959027 -0.013643648 0.040963344 0.0040863417 0.073882826 -0.038522944 -0.008753657 -0.11274043 0.028745746 -0.047129184
맘 -0.09520956 -0.06779045 -0.06190956 -0.08092696 0.17354834 -0.16167279 -0.0043451004 0.063028865 0.14627637 -0.13045537
얼마나 -0.179914 -0.06908145 -0.06069761 0.10920079 0.15448478 -0.13061017 0.029726913 -0.016371172 0.06241755 -0.097327836
애니메이션 -0.0062065255 -0.13566397 0.045511827 -0.071189724 0.14014803 -0.007839253 -0.006779135 0.0032532893 0.11754022 -0.02756709
!!! 0.056200903 -0.081286326 -0.034536604 -0.0040327115 0.07365635 -0.02558835 0.028795147 -0.117880344 0.110530205 0.09168595
러 0.16601646 -0.043033335 -0.020052113 0.06572127 -0.11267504 -0.04748682 0.040556762 -0.1504136 0.06330386 0.084622085
주연 0.06782211 0.03154504 0.083197095 0.031103153 -0.10656165 0.14576058 0.030602124 -0.08633571 -0.06431545 0.090355694
원 0.03308657 0.10596057 0.029344209 0.005211292 0.013568886 0.008094869 0.057569325 -0.023755891 -0.10728578 0.15517531
난다 0.10477316 0.06817064 0.06803614 0.07356173 0.062470462 0.0042481674 0.11060728 -0.09644507 0.029902631 0.053255953
버리 0.084832355 0.15548037 -0.0044743777 0.019369576 -0.21312535 -0.0042728805 0.013740791 -0.032941427 -0.05735874 0.21796271
어릴 -0.08626455 -0.08086014 -0.10866065 -0.063295275 0.13590509 -0.099382624 -0.0928791 0.07410726 0.105257206 -0.005449338
♥ -0.20149791 -0.2346536 -0.15145124 -0.12434423 0.3277784 -0.33667102 -0.1271948 -0.02996688 0.30260924 -0.091411136
후회 0.13867274 0.14118506 -0.030235553 -0.028407507 -0.15367255 -0.030873902 -0.08559479 -0.06928051 -0.1176009 0.41293564
진부 0.41346562 0.17099608 0.118405536 0.07785157 -0.24337533 0.11644551 0.11943722 -0.20952968 -0.027730886 0.44446978
나올 0.08836404 0.03642565 -0.031016296 0.019450303 0.16908686 -0.22267233 -0.015399566 -0.053456385 -0.025869925 0.08676234
됐 0.005330761 -0.05545819 -0.0918712 -0.07698377 0.082477935 -0.0770118 -0.054935496 -0.046285722 0.08015936 0.0401724
보단 0.061569925 0.043255292 0.10581259 -0.0066205976 0.0568328 0.06673992 -0.04785237 0.06228227 -0.22977903 0.24829571
책 -0.009020674 0.095694266 -0.00072461454 0.0029772562 -0.05098032 -0.004971111 -0.026146524 0.056008942 -0.12985706 0.14398712
장난 0.31297672 0.07571162 0.004187095 0.09475963 -0.13257208 0.042974204 0.033070724 -0.2500927 0.1845643 0.16314797
더니 -0.090854034 0.18581414 0.13968574 0.11051934 -0.31159273 0.06898129 0.07068663 0.06800463 -0.1426599 -0.08938456
영화관 -0.00017644966 0.06267013 0.0109544955 0.067514166 0.045643732 -0.019907035 0.030877583 -0.035621393 -0.022693323 0.046423446
큰 -0.020021781 -0.030912533 -0.022207798 -0.07089268 -0.040700547 -0.024419801 -0.025863262 0.09268395 -0.0229827 0.023090541
개연 0.24263069 0.14175995 0.18796909 0.16120864 -0.12093885 0.108560786 0.21645491 -0.13373134 -0.20296708 0.19426675
둘 -0.0748467 0.0559099 0.02979961 -0.014471387 0.0065382263 0.19327953 -0.058761865 0.03976807 -0.11931752 -0.13626447
출연 0.19438107 0.015429363 0.057765704 0.04859572 -0.097163945 0.092876084 0.08175275 -0.11238201 0.016014164 -0.002777602
보고 0.0052683647 -0.121468686 -0.06344184 -0.014958311 0.106826074 0.027247488 -0.045968395 -0.12281306 0.097317085 0.05987825
극 -0.026427574 -0.037858438 0.066703446 -0.020084456 -0.14888678 0.049229015 -0.061156604 0.07460164 -0.008560924 0.019938776
ㅅ -0.022463195 0.010778824 -0.012271769 0.01958931 -0.014517491 0.03189516 0.08552068 0.019032333 0.0065336754 0.035146356
밖 0.020339139 -0.054155495 -0.07178801 -0.06297699 0.08238563 -0.14748284 -0.028825559 -0.09926726 0.11436346 0.13772908
충격 0.06231404 -0.018821998 -0.048689872 -0.09708576 -0.071521014 0.066831395 -0.10084219 -0.033283863 -0.032926127 0.17847885
여기 -0.0106001925 -0.09838831 -0.0694494 -0.020800514 0.108164154 -0.0088792015 -0.009180697 0.01113909 0.09414588 -0.03674546
엇 0.23649734 0.040855072 -0.11132918 -0.0709007 -0.11514416 -0.16990553 -0.09619859 0.06835672 0.086785235 0.11519731
잔인 0.011648923 0.037825674 -0.03137553 -0.09337737 0.09663886 -0.05614262 -0.013926238 0.10307617 -0.0641058 0.048422217
아름답 -0.17927632 -0.14812456 -0.089059554 -0.2635758 0.27556032 -0.05404876 -0.09276475 0.065606855 0.06992914 -0.14917284
얘기 -0.14212945 0.043644015 0.002406201 0.04868887 0.17632067 0.010738266 0.01672472 -0.05476391 0.012868294 -0.07809945
줬 0.001609497 -0.0042502447 -0.034932494 -0.01575998 0.06799243 0.04557034 0.03321091 -0.029948317 -0.018228132 0.021456046
평가 0.030913185 -0.019207133 -0.074334376 -0.123907454 0.07071384 -0.10960164 -0.12973124 0.06795026 0.025331996 0.11801549
꺼 0.02712519 0.092941575 -0.008006021 -0.020031348 -0.12743683 -0.031835172 -0.0031531241 0.082337596 -0.13395579 0.05622926
예술 -0.10689401 -0.060427025 0.07812038 0.015780797 0.08553537 -0.026341649 -0.0031045852 0.04019536 0.04933961 -0.04793088
갈수록 -0.18423863 0.13132718 0.07290051 0.07567423 -0.023455383 0.03785188 0.12003014 0.06679435 -0.15204713 -0.1211761
매우 -0.2054707 -0.06297205 0.038559392 0.02801223 0.040114194 -0.04965586 0.037058942 0.18095928 -0.008500332 -0.19676405
든 -0.10120841 0.09208284 0.02121951 -0.033909567 0.0036271708 -0.17743565 -0.028965868 0.01833951 -0.078456305 0.004608011
자기 0.08264196 0.100544 0.024622837 0.046758 -0.06432025 0.124629095 0.013701281 -0.08226669 -0.17190789 0.17804448
위한 0.012407484 0.03917747 -0.059911624 -0.03465244 0.030472199 0.13796061 -0.09823122 0.0898416 -0.04234873 0.035927337
이리 -0.17281772 -0.020709893 0.08629177 0.08400302 -0.09541994 -0.06563544 0.06461095 0.08721147 0.116266154 -0.31315705
봐라 -0.0047042174 -0.026089149 -0.13367294 -0.092106014 0.017717646 0.08568275 -0.0624192 0.05625015 -0.010538142 -0.037106875
이후 -0.019007549 -0.048053768 -0.004257052 -0.041650422 0.07998353 -0.029696418 -0.055987682 0.034122713 0.014999801 -0.030396286
읽 0.013521093 -0.047563404 0.0060407 -0.05719089 0.03747721 -0.04774153 -0.02326818 0.04462342 0.012805171 0.02718308
반 0.0017816076 -0.0013146151 0.013655387 -0.11388825 0.18155761 -0.0119157415 0.018615872 0.012245307 -0.026014881 -0.04446848
얼굴 0.014455645 0.01038715 0.059793837 0.066255435 0.062043607 0.080278635 0.07523696 -0.11477469 -0.06956489 0.015802246
꽤 -0.07896949 -0.050690074 -0.052364804 -0.117493756 -0.029204749 -0.10862439 -0.060161404 0.19658864 0.0046912725 -0.13100544
티비 0.052319366 0.093226 -0.037340708 -0.004919534 -0.045257792 0.09395111 -0.04021582 -0.057970252 -0.14349803 0.07940835
이쁘 -0.010835645 -0.09722695 -0.05615466 -0.039231084 0.21804085 -0.21206531 -0.070493385 0.05830433 0.09532307 0.06706671
으나 0.056377858 0.19583039 0.24958329 0.07896627 -0.44704658 0.26865 0.10071467 -0.018582705 -0.24453306 0.13683875
별점 0.06027814 -0.013953007 -0.02003569 -0.03108874 -0.06921968 -0.14330482 -0.009652692 0.14145376 0.017274171 -0.038082186
깊 -0.104026325 -0.12001177 -0.17976315 -0.1450919 0.24208675 -0.049870014 -0.18711922 0.10174897 0.0734058 -0.1283212
옛날 0.061613377 -0.043348074 0.0048780455 0.022781443 -0.07126642 -0.027023084 -0.017044274 -0.05707695 0.040405575 0.081714295
불쌍 -0.0040303515 -0.062195502 -0.054784868 0.048477113 -0.003691427 0.041624352 -0.010336096 0.0875595 0.008844667 -0.08357185
못한 0.12531042 0.038561087 0.0308382 0.037193254 -0.22344363 0.057604097 0.01878823 0.0025128983 -0.045567185 -0.04898987
겟 0.022080423 0.027558565 0.14241879 0.13268687 0.039317403 -0.0953219 0.118027024 -0.029940534 0.045198794 -0.019290887
불 0.14980946 0.031146696 0.052505136 0.039889373 -0.20239782 0.24202943 0.022939075 -0.10947228 -0.053105272 0.1654349
시청 0.12495702 -0.039609294 -0.04709389 0.04929199 0.2271672 -0.04155137 0.01167357 -0.157873 0.074475616 0.12616117
순수 -0.2092211 -0.10117844 -0.04716897 -0.03142868 0.079738766 -0.008001938 -0.08246415 0.14686586 0.13254844 -0.13939331
라서 -0.07422406 -0.04743076 -0.019575316 -0.025948163 0.025783585 0.0019908831 -0.05269477 0.10702448 0.0004877681 -0.079659864
낭비 0.13135861 0.22482212 0.32273737 0.29509634 -0.30223593 0.18123968 0.3223753 -0.22880985 -0.08591638 0.050228946
언제 -0.06932152 -0.020343648 -0.049887527 0.07975285 0.015438383 -0.14961295 0.081382066 -0.11760518 0.13050236 0.019947065
건가 -0.14257352 0.06002157 0.06144923 0.029600834 -0.026346711 -0.0039329934 0.067128435 0.11444988 -0.120074525 -0.017265927
비디오 0.033100378 -0.005771085 -0.05249388 -0.0059999237 0.14223321 0.05697695 -0.009569535 -0.07059993 0.05212824 -0.0235253
애니 -0.024544507 0.0065955296 -0.02457642 -0.009287826 0.017949948 -0.007665707 -0.04870707 0.03315331 0.05260675 0.05613288
머리 0.037436187 0.09781527 0.011926175 0.020317443 -0.10539091 -0.096773684 0.014544293 0.043384213 0.01085203 0.080109045
장르 -0.009591865 0.0026361519 0.0682466 0.0003569001 -0.014994787 0.023403097 0.010271942 0.06513594 -0.032505132 0.054420013
생각나 -0.0870295 -0.121244535 -0.16935365 -0.005775512 -0.00829875 -0.14122835 -0.08742987 0.04146987 0.15266472 -0.016774388
텐데 0.12796678 0.047035508 0.02795421 0.0015832314 -0.1167973 0.10565477 0.037566908 0.02505199 -0.10334562 0.0028243626
+ -0.06489245 0.022964807 0.033607174 -0.0017421085 -0.041522853 -0.08977683 0.040333893 0.07480036 0.0012325157 -0.006764842
미 -0.032227263 -0.0127214715 0.09952362 0.014683564 -0.0034759573 0.06718041 0.117535286 0.035462912 0.030172156 -0.08258123
배 0.05133724 -0.02283816 0.015543394 0.036704067 0.14527549 0.15252168 -0.010520331 -0.12586395 -0.004519247 0.04906934
그래서 -0.1884469 0.037309006 0.015835878 0.055354916 0.01588141 0.25964338 0.05365732 0.11898981 -0.15755503 -0.27277377
: -0.043010835 -0.029631123 0.0088477805 -0.030451408 0.21127044 -0.1539248 -0.011622243 -0.06883765 -0.010385718 0.13235015
다운 0.016315442 0.014308621 -0.013022735 -0.07072599 0.18893592 -0.11740065 -0.053306825 0.031099072 0.0025496748 -0.0010242225
주제 0.012849552 0.08446123 0.04447683 0.07019693 0.05620861 -0.014011309 -0.0032726636 -0.012453436 -0.15320629 0.11191906
다큐 0.03543372 0.0269805 -0.0010682986 0.031954855 -0.016417827 -0.025971143 0.06609378 -0.016660215 0.114092834 -0.0607765
다음 -0.124865405 -0.1110813 -0.07589423 0.05614077 -0.027106311 -0.0689756 -0.039626528 0.08998861 0.276221 -0.19767047
궁금 0.077013575 0.016448146 -0.05994807 -0.025957244 0.16197434 -0.16613603 0.054279972 0.03816584 -0.012246911 0.03661195
아님 -0.063568175 0.0957297 0.09371442 -0.014315022 -0.17799637 -0.015581834 0.03293725 0.076465964 -0.22177787 0.07208353
시키 -0.07674973 0.114090554 0.07233771 0.029091991 -0.026402343 0.05726448 0.021159805 -0.02090131 -0.1889077 0.1512662
누구 0.0458669 -0.030116234 0.037507083 -0.02245779 -0.10519409 0.02933519 -0.01587851 -0.031687077 -0.027193135 0.064126156
예전 0.0991121 -0.030597912 -0.00055787293 0.0022562493 -0.03708432 -0.06114076 0.010863864 -0.1194179 0.07804567 0.15225656
그렇게 0.07982097 0.06644488 -0.02839529 0.0044380846 0.15204173 -0.010350076 -0.047225382 -0.06661007 -0.10993096 0.33123466
크 0.010610494 0.054607138 0.00731417 -0.010714027 -0.03937586 0.008725806 0.007545371 -0.060337618 -0.00055844174 0.04417188
동안 0.008666714 -0.10881629 -0.009708393 -0.036269348 -0.06400079 0.0520395 -0.037820414 0.034861144 0.06567792 -0.051995497
뒤 -0.017002458 0.017488375 0.028836926 0.06789983 -0.09928012 0.021677688 0.024845762 -0.06266008 -0.06099105 0.01607166
그만 0.17355925 0.11901226 0.11498413 0.21495652 -0.16041826 0.06714612 0.17300865 -0.24814023 -0.007066955 0.31760302
인상 -0.0155999735 -0.054838147 -0.062333778 0.013429348 0.05855468 -0.067477316 -0.046283294 -0.029336555 0.056825757 -0.001318881
상황 -0.010596943 0.0053300816 -0.03579525 0.004417206 0.022486623 -0.20570126 0.02604731 0.12219757 0.033074122 -0.07648219
?? 0.09805085 -0.09157087 -0.032988742 0.05739855 0.0305694 0.023737077 -0.0046745893 -0.12504368 0.0572431 0.029966505
이름 0.024269674 0.039560273 0.033559907 -0.048504762 0.13801637 0.010939568 0.019119594 0.03800297 -0.027189385 0.07281974
미친 0.008761173 0.05479648 -0.004424852 -0.039273843 -0.058238246 0.123843566 -0.035668354 0.043276396 -0.17477085 0.12419747
스릴 -0.046634275 -0.036199834 0.0228307 0.041979633 -0.044586428 -0.034897063 0.04316686 0.06344695 0.099717006 -0.15072611
감사 -0.12491194 -0.22198291 -0.1539801 -0.22866899 0.22189455 -0.14490516 -0.20437188 0.06888996 0.113554895 -0.06918388
시즌 -0.20450193 -0.2370299 -0.22893521 -0.12821938 0.30000252 -0.0916782 -0.20531665 0.08226135 0.18368551 -0.27594265
아무 0.16892761 0.07049724 -0.004045965 0.06712928 -0.13314861 -0.03832056 0.0990934 -0.10349053 -0.024606094 0.08410862
너 0.10356781 0.01587318 -0.035541914 0.0047498476 -0.11729827 -0.026439672 -0.026782323 -0.057320233 0.066310525 0.057606585
오래 -0.026145332 -0.13671164 -0.0542358 -0.043236516 0.111086756 -0.0425785 -0.0015147699 -0.10095175 0.18635374 -0.0036449223
B 0.10143043 0.025288392 0.10581188 0.12331452 -0.09292499 0.18825838 0.031705014 -0.1011448 -0.11279057 0.012813185
집중 -0.20226967 -0.019602768 0.018264875 0.037571322 -0.16370875 0.00662934 -0.027824799 0.08509939 -0.027306259 -0.17542052
힘 -0.021938916 -0.07654335 -0.031149184 -0.05431976 0.070566535 0.040522445 -0.053913455 0.024667175 -0.048685405 -0.03268317
어느 -0.0040763034 -0.029613232 -0.01620863 0.0343338 -0.08285068 -0.05786043 0.052875515 0.040119108 0.068275794 -0.08289459
본다 -0.020149928 -0.05728692 -0.040495034 0.03588404 -0.038022924 0.07353159 0.023497535 -0.05647078 0.16611817 -0.13530011
그러 0.18543744 0.10772182 0.025786696 0.013274942 -0.13925129 0.042365648 -0.0069248253 -0.03013505 -0.08461737 0.1520945
로맨스 -0.070390105 -0.09524898 0.044242654 -0.045210637 -0.0094076535 0.07193137 -0.023233276 -0.036577918 -0.005878458 -0.097196706
약간 0.1708059 -0.08316218 -0.11362199 -0.048240554 -0.04522535 -0.043775328 -0.08254211 -0.032281637 0.08005236 0.16114874
나와서 0.028429963 0.0996046 0.0034924573 -0.068415835 -0.07918874 0.11675508 -0.06011924 0.011362987 -0.09786988 0.07200535
진정 -0.1784782 -0.05400524 -0.017988333 -0.13841806 0.022949155 0.011518422 -0.08849841 0.18375471 -0.040032048 -0.076287836
식 0.0281315 -0.011155455 0.09194639 0.055895206 -0.31262 0.1334403 0.022713479 0.058610916 0.009886994 -0.045602046
방송 0.02180726 0.07267133 0.018761242 0.09504039 0.10174964 -0.10718608 0.08421802 -0.00083160086 -0.027451592 0.10243811
그나마 0.17605503 0.18068735 0.18311353 0.30387107 -0.33855268 0.2939776 0.27408785 -0.3089527 -0.054542445 0.22387516
까 -0.021827348 0.15488654 0.048719354 -0.019919185 -0.03286449 -0.014131325 -0.032553565 0.014613268 -0.15712531 0.26170316
짜리 -0.112745136 0.03736329 0.02127069 0.012044351 -0.060043626 0.061379902 -0.019208374 0.092914045 -0.085292876 -0.039781746
마세요 0.0025340598 0.19744594 0.16562808 0.06078342 -0.18435262 0.1248192 0.14209606 -0.037219778 -0.29737923 0.042135082
소설 0.094516136 0.053786132 0.009310456 0.024078041 -0.017846765 -0.009653439 -8.367741e-05 -0.067792706 -0.0070354864 0.16991854
여주인공 0.056199938 0.0845059 0.10076605 0.06123611 -0.11512579 0.09202111 0.06962266 -0.07453942 -0.13928123 0.036551263
몰 0.05883291 0.06633757 0.10875395 0.07673558 -0.29491922 0.15079218 0.10777667 -0.10419131 0.008210799 -0.0388083
걸작 -0.2180032 -0.2269536 -0.18540516 -0.19460908 0.37586358 -0.1759988 -0.17307645 0.078142725 0.28246644 -0.19735916
존나 -0.1242382 0.015913239 0.07093332 0.14894342 -0.07440316 0.120373346 0.15243049 -0.06837598 0.066703774 -0.21634182
그대로 -0.07869085 0.016904075 0.041542917 -0.036720287 -0.09683214 -0.04399593 -0.019337313 0.13213606 -0.03212845 -0.11023611
죽이 0.0008808152 0.01824842 0.0348815 0.057854433 0.052859638 0.06923644 0.111604564 -0.06837296 -0.121427275 -0.07844354
인물 -0.07578458 0.020112406 0.03693788 0.046766214 -0.21564034 0.01110621 0.012279124 0.09479073 -0.038625762 -0.2805083
났 -0.021619411 -0.039232668 -0.015508277 -0.05278894 0.11332696 0.0753677 -0.043283943 0.015006807 -0.05501476 -0.030633016
그것 -0.0029809014 0.016570117 -0.10655635 -0.0458846 -0.004932784 -0.007950455 -0.027293066 0.03248144 -0.009264566 -0.0051280283
회 -0.08408378 -0.062221378 0.053642735 0.04660963 0.03289477 -0.036369257 -0.030000586 0.034863815 -0.014242536 -0.10387792
떨어지 0.22683817 0.16218872 0.046366822 0.10652454 -0.057522643 0.10898084 0.13742468 -0.11876842 -0.17375897 0.26169005
평 -0.022586424 -0.074240014 -0.06838101 -0.032612827 0.13413155 0.15724033 -0.08645298 -0.06891406 -0.042458266 0.1712423
케 0.0049691605 -0.08122697 0.011820839 -0.022606965 0.064309135 0.09902283 -0.0024146999 0.030113623 0.015113869 -0.16448677
왔 0.17409147 0.0074811997 0.013126265 0.11255019 -0.06133293 -0.049106378 0.0681658 -0.15109937 0.04616262 0.10020209
에요 -0.06367537 -0.17061706 -0.11845385 -0.021674857 0.024166247 0.09155372 -0.055553872 -0.032216474 0.1552796 -0.20611778
실화 -0.026879724 -0.048816264 -0.042872667 -0.0018727919 0.024416361 -0.14127736 -0.07824738 0.030856473 0.20247114 -0.10868562
꿈 0.047362883 -0.17753461 -0.13145448 -0.12872349 -0.028948696 -0.007028816 -0.11970058 0.09353953 0.0989751 -0.031314246
대체 -0.07181589 0.11137092 0.078285635 0.0751912 -0.080356 0.03968542 0.014832316 0.045952134 -0.05433205 0.039798133
해라 -0.017391434 -0.04343165 0.016142845 -0.0059325336 -0.1505965 0.007674529 -0.02339444 0.09913055 -0.057851225 0.07685353
훨씬 0.01106641 0.042840436 -0.025718303 0.03574078 0.2561967 0.067501664 -0.036223333 -0.04775063 -0.044444356 0.038549647
짓 0.20403525 0.004253355 0.00077125 -0.01950825 -0.020991556 0.17442003 0.012916892 -0.11284542 0.025562285 0.021810194
무 0.04128317 -0.007508391 0.019039312 -0.0018289379 -0.029010905 0.053336024 -0.014947028 0.04510891 0.022049224 0.12654889
사회 -0.04838841 -0.1618345 -0.09648344 -0.17088062 0.049766067 -0.023332428 -0.1756708 0.014870344 0.09942041 0.0267664
만점 -0.28975213 -0.09342517 -0.15694177 -0.32658753 0.3169157 0.04572959 -0.34701124 0.2793505 0.024789423 -0.2071627
발연기 0.3141598 0.36009604 0.31909442 0.25708944 -0.24471152 0.13811886 0.28548598 -0.24097012 -0.17298262 0.29668275
구만 0.2003831 -0.15097877 -0.1816861 0.00082331256 -0.103829674 -0.031690307 -0.15590407 -0.11963524 0.23234655 0.10988945
~! 0.016423207 -0.13680707 -0.11156727 -0.010100596 0.011666275 -0.07278239 -0.17095353 0.026302483 0.20209189 -0.0150350975
전체 -0.22315378 0.032190084 0.068039514 0.119156085 -0.07012676 0.014009638 0.072158806 -0.033881504 0.013325708 -0.21408112
ㅜ 0.059677467 0.009566097 -0.021095093 -0.07651745 0.09043055 -0.029265085 0.00089559064 -0.023573453 0.0028976267 0.08627652
비슷 0.11127503 0.007361474 -0.0012971084 0.060759503 0.06393813 0.06703836 -0.05909578 -0.1691122 -0.026133435 0.07661917
누가 0.16002607 0.04551794 -0.056840252 0.017151454 -0.21210904 -0.03272391 -0.07252119 -0.06509242 0.075474784 0.15920836
막 -0.05728998 0.14694357 0.10607035 0.1409109 -0.30952814 0.009242543 0.014267839 -0.018825682 -0.06821332 0.04651301
30 -0.09791051 0.0030274633 -0.046857953 0.015642364 0.046549622 0.004079581 -0.020014588 -0.039310645 -0.03538375 -0.021876322
햇 -0.008797785 -0.066835046 -0.0194807 -0.10263925 0.22424299 -0.025319315 -0.030644286 0.023893224 0.035992734 0.022562066
끝나 0.15196715 0.021675793 0.03382236 0.030829454 -0.2963841 0.1578508 -0.06408871 -0.04380729 0.032668777 -0.0061310893
CG 0.39479667 0.0627892 0.1305923 -0.0005662247 -0.030799717 0.22594911 0.01806939 -0.20320205 -0.13460103 0.26338586
엉성 0.4417496 0.20792224 0.35555065 0.19061998 -0.25560406 0.63117 0.21638048 -0.27363995 -0.38904992 0.30061576
귀엽 -0.023477012 -0.14783655 -0.05476421 -0.11299033 0.09896077 -0.041252516 -0.060936257 0.017564597 0.14389227 -0.05592958
여주 0.10175397 0.107592374 0.044792652 0.1420025 0.11146789 -0.09198857 0.080301955 -0.28279158 0.041761164 0.16552961
단 0.1475964 0.012103334 0.0016974657 -0.022598412 -0.026424287 0.046064325 -0.023809835 -0.008812811 -0.017309079 0.18383689
영상미 0.09512031 -0.05790012 -0.023782749 -0.031667378 -0.11147994 0.020007541 -0.086619414 0.017506795 0.08051828 0.080947444
중국 0.20668605 -0.023342824 -0.052161124 0.0709232 -0.021869676 -0.04007428 0.07637144 -0.14984564 0.09470267 0.010449935
비교 0.14340447 0.06834642 0.009421638 0.03396991 -0.028608885 -0.059592634 0.030318134 -0.012656197 0.00765722 0.11361469
초딩 -0.003669094 0.00019119628 0.048010815 0.0078574475 -0.06367464 0.02270859 -0.01466945 0.032052536 -0.08909693 0.115208596
감성 -0.13834846 -0.112269804 -0.07742899 -0.021069206 0.0593384 0.10565121 -0.054410525 0.07732748 0.10079868 -0.30226636
네이버 -0.08900462 -0.019114759 -0.03536948 -0.03534563 0.11627977 -0.010535073 -0.03745858 0.04483151 -0.14690013 0.03594739
세계 -0.19726102 -0.042511802 -0.070705906 -0.013928701 0.14163022 -0.03618521 -0.054519918 0.029317314 0.12077165 -0.22275159
여배우 0.13695645 -0.067942 0.005535157 0.049581833 0.17066073 0.013868577 0.036321465 -0.08430644 0.057233304 -0.008034663
는가 -0.033294823 0.05897743 -0.0644549 -0.07754071 0.07199152 -0.07433999 -0.012400117 0.16712205 -0.06718414 -0.015569172
ㅎㅎㅎ -0.06421321 0.11328306 -0.055316504 -0.010359002 0.12171578 -0.07016377 0.034051917 0.004535421 -0.067911595 0.009279376
순간 -0.08919836 -0.02422883 0.011741374 -0.14421472 -0.03852747 0.12932283 -0.08830735 0.17169006 -0.06764786 -0.18937705
망 0.35233545 0.4867584 0.27000946 0.1907987 -0.21167752 0.25663498 0.22245839 -0.19276375 -0.48960882 0.44597286
느껴 -0.047875255 -0.14402592 -0.07335204 -0.0020016388 0.089099206 -0.063352905 -0.03954618 -0.04413916 0.10077387 -0.0031927088
려는 0.06360793 0.12638451 0.100879356 0.07121942 -0.069367506 -0.11245815 0.10813801 -0.093744636 0.023029573 0.05858318
나이 -0.04743018 -0.123763874 -0.15606809 -0.0793449 0.04007444 -0.10723423 -0.0882173 0.0901654 0.07792464 -0.073780805
;;; 0.06678739 -0.024064217 0.003034808 -0.040435966 -0.11195351 0.13599877 -0.02831324 -0.008309491 -0.036688462 0.055842508
대해 -0.16126966 -0.084317945 -0.045901258 -0.02941603 0.09295818 -0.022109162 -0.0206231 0.010614802 0.09125299 -0.10236313
상 -0.0052378783 -0.019517167 0.011273992 0.0039114873 0.01330745 -0.0016889226 -0.06348618 0.07683888 -0.03758672 0.07475105
첫 -0.08205304 -0.07922118 0.009132659 -0.018323911 0.09748774 -0.095992304 -0.014113327 -0.061519984 0.13780072 -0.06911693
어렸 -0.040886305 0.0194253 -0.024265366 -0.085276864 0.022114696 0.11845979 -0.07524155 0.050694842 -0.076801166 0.012008146
쯤 0.040935777 0.006312877 -0.0032862006 0.03791501 0.058310434 -0.09537667 0.0030405058 -0.08404425 0.014543135 0.056650173
판 0.14383185 -0.021466639 0.014042202 -0.06353785 -0.033281986 -0.07232593 -0.022848317 0.054320723 -0.08544425 0.13719538
입 -0.099047646 0.037552856 0.029925248 0.021866946 0.047676213 -0.15786357 0.035387225 0.12684792 -0.025405006 -0.10128297
꿀 -0.06297445 -0.0893971 -0.2960275 -0.14582005 0.32892483 -0.2499599 -0.16554892 0.044667475 0.16395725 -0.10275007
갔 -0.011067492 0.031266384 0.018760735 0.016981844 -0.049353614 0.0018723023 0.05484251 0.0011987523 0.0038981235 0.017863076
어설픈 0.46145454 0.24452195 0.28775594 0.21193981 -0.25220188 0.46527952 0.3119711 -0.3492581 -0.43700105 0.37793154
돋 0.039649546 -0.02318588 -0.059039194 -0.035913587 -0.1888041 0.06457118 -0.14085922 0.12208704 -0.053784586 0.06848842
셨 0.14581117 -0.03857896 -0.022330731 -0.0049637887 -0.04180915 0.11826979 -0.05618057 -0.050964907 -0.092367634 -0.022266822
학교 0.06306604 0.0038481918 -0.0637421 -0.01982835 0.017719667 -0.0022400278 -0.01909293 0.0017947606 0.007904046 0.13553604
더럽 0.062579505 0.20234132 0.12521327 0.0324086 -0.27403012 -0.08498123 0.10890079 0.003677196 -0.049128946 0.14693028
타 0.018490382 -0.023008374 -0.035069805 0.041548464 -0.02650909 0.13383853 -0.02132999 -0.09938457 0.021078836 0.05418023
생 0.07225231 0.0036041958 -0.044749964 0.10627692 -0.17711753 -0.034646004 -0.020693105 -0.018364845 0.10969008 -0.06483228
100 -0.1411211 -0.16215122 -0.051654674 -0.17590035 0.26661575 0.14829671 -0.09887407 -0.0019935484 0.06408272 -0.15799907
혼자 -0.14327124 -0.07462244 -0.03946171 -0.007336021 0.080954395 -0.065364234 0.018505815 -9.779332e-05 0.1107449 -0.08709133
아들 -0.16855925 0.020246362 0.020772126 0.0044629304 0.08590514 0.06010719 -0.041312225 0.035743218 0.015019331 -0.106000915
느낄 -0.16766599 -0.021703271 0.043175563 -0.034373835 -0.08980282 0.13406737 -0.062622346 0.11853493 -0.0768929 -0.10694366
성룡 -0.084208705 0.029105216 -0.01278533 -0.08792252 0.2520886 -0.19486907 -0.055583533 0.105555154 0.06606232 -0.076010145
아야 0.005430972 0.032295495 0.03148912 -0.062243965 -0.019214572 0.046428084 -0.0008401532 0.053022992 -0.06622721 0.0130064
가능 0.0029515768 -0.082632214 -0.092915066 -0.05713564 0.07493801 -0.038327992 -0.023800477 0.019865977 0.077967495 0.058473952
졸 0.033258487 0.07159522 0.10761631 0.12691945 0.07686734 0.015117062 0.14106895 -0.17302388 -0.046995834 0.0054444727
어린 0.07104325 0.012290178 -0.056952246 -0.013961446 -0.012746383 -0.048516233 -0.005597929 -0.061134268 0.05470246 -0.0031398146
교훈 -0.1717942 0.025861258 0.08983822 -0.018230898 -0.075887464 0.1211633 0.039380986 0.050611366 0.012830255 -0.076307975
멋지 -0.14115435 -0.1096186 -0.1520459 -0.14810672 0.2284317 -0.07079623 -0.20472956 0.14847478 0.10566412 -0.16819307
바로 -0.07132018 -0.06263858 -0.027407762 -0.015352068 0.08444157 -0.050364625 0.07618056 0.011644786 0.04126813 -0.09523067
나가 0.07332269 0.027836138 0.089762084 0.10184446 -0.100468725 0.10761109 0.097368956 0.024283126 -0.20806931 -0.05250061
잘못 0.09659583 0.14709343 0.03297355 0.064171776 -0.16548298 0.14785792 0.013986062 -0.08187804 -0.09881699 0.20433527
맛 -0.0059266756 0.020777583 -0.026404232 -0.027416218 -0.03450414 0.04263028 -0.028698577 0.06767204 -0.054072596 0.02119232
..... 0.08273883 -0.059991337 0.049006894 0.12125203 -0.079806566 -0.04360453 0.13251092 -0.1840012 0.17849366 -0.0033197226
한마디 -0.042344466 -0.05663397 0.050462887 0.034049224 0.17021003 -0.023682352 0.087534726 -0.010194001 0.06662703 -0.18644138
존 -0.05076454 -0.046785384 -0.0008104618 0.01715695 0.0031333196 -0.04778564 0.05538099 0.062110133 0.08634051 -0.10850144
딸 0.0054084607 0.06400275 -0.053736027 0.07771181 -0.004819498 0.029413087 -0.033030555 -0.045023624 -0.07858452 0.07620154
당신 0.013147608 -0.031672455 -0.11206029 -0.0025558586 0.09275778 0.026388815 -0.05268395 -0.06353634 0.054838445 0.012909175
화려 0.07409572 -0.018709246 -0.023297051 -0.02959749 -0.05556628 -0.013491885 -0.025099779 0.029046925 0.13610359 -0.018218737
길래 -0.1346714 0.11845161 0.0780804 0.017400716 0.04955074 -0.15906855 0.016395897 0.02310219 -0.19756678 0.12028761
끌 -0.039955355 0.17462221 0.13517042 0.13517769 -0.015500174 0.0684408 0.13380176 -0.024058092 -0.16186295 -0.06401128
티 0.0061569214 0.05608918 0.07713321 0.06501477 -0.08036924 0.093308225 0.09224546 -0.12165562 -0.009245218 0.0065069706
판타지 0.1553249 -0.035518922 -0.001098605 0.0015528674 0.068219446 0.033516675 -0.024752095 -0.15183523 0.034870252 0.017979823
삼류 0.2763642 0.2878858 0.18595801 0.29776838 -0.19357088 0.20207101 0.2954038 -0.30180994 -0.18330324 0.42690256
잠 0.3558525 0.104486026 0.05835616 0.11189207 -0.1609098 0.122855775 0.030563142 -0.26713717 -0.11603173 0.47110215
땜 -0.089334235 -0.06516531 0.014675449 -0.07485181 -0.013296816 0.107904635 -0.013053099 0.11598896 -0.05686735 -0.09445842
든다 0.087655 -0.018346366 -0.0386955 0.013829071 -0.050149467 0.010068847 0.004962887 -0.16260357 0.07624359 0.09838052
달 -0.08840805 0.048952024 0.01696236 -0.010908113 -0.010583819 -0.070444636 0.015814194 0.03687417 0.031017307 -0.047337152
빨리 -0.111364804 0.0132001 0.025155658 0.054956127 -0.103830494 -0.009770428 0.07109557 0.035738394 0.07860009 -0.12343753
맨 -0.08526445 -0.033416223 -0.037380233 0.003271168 0.041831225 0.048953075 -0.022740476 -0.027985996 -0.038518865 0.033025514
목소리 -0.0758513 0.036348913 -0.005827732 0.026923876 0.129411 0.06055171 -0.045923978 0.026400018 -0.060904518 -0.024564417
똥 0.2504037 0.102743596 0.06942651 0.14984623 -0.16626377 0.09915103 0.17743665 -0.2748903 0.049316518 0.12845768
아까움 0.1597169 0.3451822 0.33015224 0.22569963 -0.22954117 0.022563376 0.4033194 -0.1624768 -0.1985635 0.21699734
영 0.040561277 0.06175462 0.086241305 0.0929563 0.004306975 0.11367709 0.128004 -0.04407865 -0.12856695 -0.12459552
당 0.00055425824 -0.107109904 -0.07789253 -0.009218561 0.13235687 0.10084344 -0.010988243 -0.12317653 0.08543341 -0.12015091
거의 -0.13032575 -0.04298631 0.0675707 -0.0048523135 0.09137676 0.07051582 0.024481852 0.08442685 0.014371513 -0.20062317
듣 0.016186979 0.09790675 -0.026576838 -0.006964518 0.06997559 -0.0483498 -0.036380198 0.058409862 -0.1843067 0.14722128
봤었 -0.01101951 -0.020513358 -0.075682074 -0.021510834 -0.010398819 0.058905106 -0.015263418 0.025769904 0.0036860607 0.09564429
나온다 -0.04906104 -0.032558423 -0.015894739 -0.0087852 0.07933453 0.038011506 -0.008242237 -0.06304575 0.0030518519 0.114453144
전부 -0.0039991243 0.05660383 -0.00313116 0.07340118 -0.1752631 0.05456848 0.047326952 -0.059699543 -0.065416284 0.038037304
차 0.04344765 -0.015759546 0.09298455 -0.030658752 -0.15080856 0.06565858 0.031273697 -0.017866414 0.03488535 0.029380044
독특 -0.02687236 -0.03648908 -0.050608315 -0.12751393 -0.13010505 0.048606932 -0.060822137 0.18033196 0.028117454 -0.103451215
건데 -0.06518219 -0.030093502 0.03264125 -0.04438845 0.09146284 0.1020314 -0.019521924 0.020688001 -0.15210752 -0.020775167
다르 -0.16872649 -0.113490015 -0.053648867 -0.00985423 0.11113457 0.010255356 -0.08457118 0.07759082 0.046193503 -0.117362775
초 -0.122808285 0.030510163 -0.0072707674 -0.020617442 0.066018395 -0.07977236 0.0023571542 0.06973597 -0.06216231 -0.049960837
ㅉㅉ -0.008654451 0.09166572 0.11326619 0.0080226045 0.01673718 0.20346399 0.004051391 0.09729739 -0.3494508 0.05470592
어른 -0.17323436 -0.02724842 -0.007384652 -0.044846036 0.070951134 -0.15199378 -0.00885265 0.10691021 -0.002896207 -0.112567835
가치 -0.123098396 -0.11500509 0.00184763 0.035818364 -0.017784258 0.032623604 0.01566719 0.06542068 0.027185133 -0.14189276
위 -0.176848 -0.10754532 0.012048881 -0.1938155 0.29797602 -0.07809528 -0.096872404 0.098053105 -0.04064579 -0.071760826
률 0.02234239 -0.06366773 -0.040835496 -0.038033035 0.11108963 0.084642105 -0.019802483 -0.05266086 0.04490462 0.041743793
상당히 -0.09051016 -0.10534522 0.019599624 -0.07545031 -0.028080905 0.03259025 -0.012443938 0.15024875 0.044123005 -0.13821258
씩 -0.11111432 -0.0480189 0.046198707 0.056103207 -0.06930706 -0.12152522 0.012729872 -0.012492159 0.0916658 -0.1029432
90 -0.097833075 -0.029300816 -0.029497936 0.015060499 -0.0028030893 0.009050021 -0.016223146 0.0041567404 0.11373421 -0.11346938
다만 0.28341243 0.044914886 -0.0039700544 0.043260496 -0.15226007 -0.053374298 -0.031584375 -0.09020801 0.0190637 0.21857621
질질 0.069023676 -0.0009996798 0.07388688 0.09436357 0.0368803 -0.075405575 0.083339505 -0.05416037 0.05327219 0.14599188
아버지 0.06054628 0.0035049499 -0.07666239 -0.10195807 -0.044202045 -0.04205391 -0.06336808 0.045174588 0.0457904 0.018452708
넣 -0.08962392 0.15194383 0.055266026 0.033886656 -0.004817969 -0.16724853 0.106029704 -0.010830483 -0.023643168 -0.044643003
평론가 -0.053269267 -0.12867188 -0.17118254 -0.2743982 0.18604954 -0.07524124 -0.28783378 0.025444284 0.058858912 0.24429493
줄거리 0.011939623 0.029446848 0.06469974 0.056575105 0.10630247 0.06743445 0.0067413207 -0.04543745 -0.011533615 0.086958274
한번 -0.07475244 -0.04653568 -0.01334851 -0.028181462 0.27694735 -0.016401729 -0.02206799 -0.025831629 0.09488197 -0.10310272
이번 -0.19200638 0.013808583 0.0035840794 0.062468342 0.034134578 0.11410308 0.0104693575 0.05039235 -0.09614988 -0.15534973
갑자기 -0.011473664 0.05338411 0.1569751 0.12504996 -0.17817609 0.21863869 0.08632968 -0.082850665 0.041756447 -0.1553002
스타일 0.045005947 -0.09732562 -0.07794928 -0.019883238 0.11842378 -0.10851124 0.026340632 -0.04493688 0.15131849 -0.046146475
이러 -0.10495975 0.06380272 0.04673753 0.09104806 0.018943671 -0.17010742 0.112589866 -0.014296052 0.0009955979 0.015755832
그러나 -0.14976461 0.03454013 -0.00015726086 -0.07002969 0.031758964 0.12880312 -0.041281715 0.138988 -0.24696502 -0.10601014
여러 0.14198138 -0.11215106 -0.028706517 -0.03336525 -0.15836176 -0.09373597 -0.05164071 0.011141935 0.14832193 0.0029603057
군요 -0.045135174 -0.105099544 -0.028211506 -0.09801845 -0.05051158 0.06295713 -0.100394726 0.045643613 0.072337404 -0.0064253323
ㅂ 0.14878519 0.027300064 0.085837 0.06700885 0.044229615 0.12561072 0.047230694 -0.19442217 -0.09996893 0.2275433
의도 0.17411709 0.15017733 0.0724367 0.05979142 -0.18411444 0.09824383 0.11527662 -0.09699435 -0.14860727 0.19149652
저런 0.023246296 -0.004275075 -0.026094787 0.045922633 -0.12383006 -0.05430693 -0.029980216 0.11950706 -0.033151843 0.051485665
존재 -0.019022334 -0.03465207 -0.027479848 -0.012604772 -0.07544807 -0.06787136 -0.027315008 -0.048163254 0.073158845 -0.086828806
허무 0.3370013 0.14706086 0.015065593 0.10557523 -0.36328572 -0.06482136 0.05293456 -0.2475304 0.073426865 0.29574224
밑 0.21681702 0.06996894 -0.034746442 0.039416987 0.16866244 -0.11559321 0.05276309 -0.29162586 -0.0034257611 0.26148483
% -0.06710955 0.008892591 -0.020344777 -0.104124874 0.17247008 -0.06325884 -0.011733805 0.0036199687 -0.11339356 0.025181169
부 -0.028765058 0.063309334 -0.050624542 -0.067550965 0.040237196 -0.16024344 -0.04913027 0.057992082 -0.049714785 0.027381238
대로 -0.018937357 0.03154747 0.0014814835 0.029162917 0.09295346 -0.035857055 0.0760822 -0.045728277 -0.010907742 0.024854051
에선 -0.049780812 -0.06958523 -0.036084235 -0.06826306 0.03897846 0.121304 -0.12438833 0.081506625 -0.046600893 -0.103876464
째 0.0025159102 -0.049501196 -0.04502389 -0.07624271 -0.02593131 0.120155804 -0.12019985 0.021748094 0.049863 0.025642088
각본 0.1314062 0.049439896 0.0359057 0.1602913 0.03082766 -0.083424024 0.08870542 -0.16074531 0.1327398 -0.07005193
예상 -0.0274894 0.14386322 0.058151323 -0.0024936441 0.04059043 -0.114727974 0.041103963 -0.016418332 -0.09330079 0.22716919
성우 -0.091043815 0.02218821 0.1414319 0.13430676 -0.10447904 0.060416277 0.14871277 -0.15393573 0.06934177 -0.1785345
으면서 -0.07469685 0.021833451 -0.04540826 -0.18543792 0.040416192 -0.07472681 -0.06625999 0.13133791 -0.03634841 0.01634013
그녀 0.0728155 -0.16376965 -0.02961243 -0.06679565 0.059204314 0.050355878 -0.06693982 -0.09405368 0.039353002 -0.012720489
버린 0.06910346 0.056112573 0.000102670805 0.04063868 -0.043747853 0.004271912 0.013333651 -0.058438502 0.005643145 0.093607426
화면 0.18185465 0.011671013 -0.026587501 0.015045108 -0.1520843 -0.0076062805 0.034123614 -0.10673471 0.079869 0.035717294
너무너무 -0.06894912 -0.053939994 0.038965594 -0.013075702 0.11567539 -0.038764033 0.03924725 -0.012535798 0.04958691 -0.116215244
ㄱ -0.014576903 0.06775335 0.009290814 -0.005055072 0.015555152 -0.10273793 0.043067317 -0.08413212 0.06433278 0.11333386
떠나 0.068876095 -0.010990858 -0.10853075 -0.03135419 -0.07425871 0.014137957 -0.061520945 0.07257207 0.07043329 -0.026432913
예쁘 -0.11913086 -0.019653058 -0.010675811 0.030679628 0.018808374 -0.06872888 -0.06300805 0.07242145 0.029936923 -0.08251022
비해 0.112131305 0.10613478 0.010766306 0.05894374 -0.16235128 -0.07798042 0.047637038 -0.020926604 0.0072569335 0.14413857
자연 -0.13753517 -0.037782762 -0.031180182 -0.09287984 0.4114558 -0.084914386 -0.054469198 0.024152491 0.026392814 -0.13712172
담 -0.17056538 -0.024391891 0.027735285 0.04864056 0.06014108 -0.024558827 0.021659186 0.06161079 0.053792305 -0.18827833
그런지 -0.08861019 0.049176946 -0.0029362808 -0.08711164 -0.113759615 -0.11634258 -0.040525794 0.19366366 -0.023700062 -0.037778772
뻔하 0.12039252 0.20591268 0.111167796 -0.02059049 -0.31498078 0.2330797 0.036411174 0.10576086 -0.29776853 0.1757111
평범 0.14866923 0.08906657 0.07665538 0.02156151 -0.36721477 0.18720865 0.013141698 -0.061443392 -0.11038765 0.19165094
굉장히 -0.037878115 0.082709 -0.0050583347 0.10182808 -0.08633112 -0.058284294 0.04544384 0.016242523 0.07239812 -0.09340434
만나 -0.12844382 -0.011870894 -0.059007023 0.018256558 0.13823153 -0.016281426 0.0055532986 0.01906543 0.009446682 -0.11301243
슬픈 -0.077755176 -0.19014005 -0.17412731 -0.10574505 0.28194895 -0.2437479 -0.044056583 0.04867486 0.27504233 -0.16870257
돼 -0.036360733 0.11355583 0.030098768 0.13894695 0.092650525 -0.12827562 0.12107111 -0.122348785 -0.06973198 0.075851604
못했 -0.062282514 0.027947834 0.040716473 0.03519362 -0.25592902 0.09502853 -0.08638362 0.020670786 -0.0795769 0.11967322
지루함 0.34063238 0.22063288 0.23935358 0.13248374 -0.69885474 0.24248564 0.10691717 -0.19883718 -0.17098887 0.425655
복수 0.08174337 0.00037037136 -0.017149683 0.038127623 -0.09757409 0.12081181 0.043988686 -0.095824614 0.07249219 0.0077903457
